{"learner":{"attributes":{"scikit_learn":"{\"_estimator_type\": \"classifier\"}"},"feature_names":["gender","SeniorCitizen","Partner","Dependents","tenure","PhoneService","MultipleLines","InternetService","OnlineSecurity","OnlineBackup","DeviceProtection","TechSupport","StreamingTV","StreamingMovies","Contract","PaperlessBilling","PaymentMethod","MonthlyCharges","TotalCharges"],"feature_types":["int","int","int","int","int","int","int","int","int","int","int","int","int","int","int","int","int","float","float"],"gradient_booster":{"model":{"gbtree_model_param":{"num_parallel_tree":"1","num_trees":"100"},"iteration_indptr":[0,1,2,3,4,5,6,7,8,9,10,11,12,13,14,15,16,17,18,19,20,21,22,23,24,25,26,27,28,29,30,31,32,33,34,35,36,37,38,39,40,41,42,43,44,45,46,47,48,49,50,51,52,53,54,55,56,57,58,59,60,61,62,63,64,65,66,67,68,69,70,71,72,73,74,75,76,77,78,79,80,81,82,83,84,85,86,87,88,89,90,91,92,93,94,95,96,97,98,99,100],"tree_info":[0,0,0,0,0,0,0,0,0,0,0,0,0,0,0,0,0,0,0,0,0,0,0,0,0,0,0,0,0,0,0,0,0,0,0,0,0,0,0,0,0,0,0,0,0,0,0,0,0,0,0,0,0,0,0,0,0,0,0,0,0,0,0,0,0,0,0,0,0,0,0,0,0,0,0,0,0,0,0,0,0,0,0,0,0,0,0,0,0,0,0,0,0,0,0,0,0,0,0,0],"trees":[{"base_weights":[-0E0,7.257019E-1,-1.4780059E0,1.005573E0,-8.234473E-2,-1.762557E0,-7.3324573E-1,1.1529158E0,-3.4146342E-1,1.4523184E-1,-9.659864E-1,-1.5637149E0,-5.79409E-1,-2.0444444E-1,-1.4793651E0,1.3049786E0,4.7976878E-1,-7.298578E-1,6.896552E-2,5.6145674E-1,-4.180328E-1,5.4545456E-1,-1.1396227E0,-1.6909091E0,-1.2296296E0,5.6497175E-2,-1.12E0,-1.1494253E0,-5.503449E-1,1.3822064E0,3.2599118E-1,-2.8915662E-1,7.169811E-1,-0E0,-1.1407408E0,2.9268292E-1,-7.906977E-1,5.910448E-1,-4E-1,-6.355685E-1,9.3959734E-2,-6.666667E-1,1.04E0,-1.321101E0,-2.7450982E-1,-1.7446809E0,-9.433962E-1,-9.589041E-1,-4.5000002E-1,-7.719298E-1,4.4262296E-1,-0E0,-1.4E0,-1.4366198E0,1.1111111E-1,4.3865943E-1,1.5967743E-1,-2.5714287E-1,1.7460318E-1,8.9655176E-2,-2.6746988E-1,3.452514E-1,1.4704226E-1,2.1176472E-1,-1.4400001E-1,-2.3333335E-1,-4.3880597E-1,2.0439562E-1,-5.454546E-2,-7.2000004E-2,-3.818182E-1,1.5449102E-1,-3.1551728E-1,1.0434783E-1,-2.332226E-1,2.9491526E-1,-1.4042553E-1,-0E0,-3E-1,4.4000003E-1,8.5714296E-2,-1.5555556E-1,-4.215385E-1,6.31579E-2,-3.8823533E-1,-2.4705884E-1,-5.2775925E-1,2.0000002E-1,-3.866667E-1,-3.323741E-1,3.818182E-1,-1.4366198E-1,-3.4468085E-1,2.0000002E-1,-1.6595745E-1,-2.0000002E-1,1.5E-1,-1.3846155E-1,-4.4788733E-1,-1.8E-1,-4.571429E-1,2.4705884E-1,-1.3043478E-1],"categories":[],"categories_nodes":[],"categories_segments":[],"categories_sizes":[],"default_left":[0,0,0,0,0,0,0,0,0,0,0,0,0,0,0,0,0,0,0,0,0,0,0,0,0,0,0,0,0,0,0,0,0,0,0,0,0,0,0,0,0,0,0,0,0,0,0,0,0,0,0,0,0,0,0,0,0,0,0,0,0,0,0,0,0,0,0,0,0,0,0,0,0,0,0,0,0,0,0,0,0,0,0,0,0,0,0,0,0,0,0,0,0,0,0,0,0,0,0,0,0,0,0],"id":0,"left_children":[1,3,5,7,9,11,13,15,17,19,21,23,-1,25,27,29,31,33,35,37,39,41,43,45,47,49,51,53,-1,55,57,59,61,63,65,67,69,-1,71,73,75,77,79,81,83,85,87,89,-1,91,93,95,97,99,101,-1,-1,-1,-1,-1,-1,-1,-1,-1,-1,-1,-1,-1,-1,-1,-1,-1,-1,-1,-1,-1,-1,-1,-1,-1,-1,-1,-1,-1,-1,-1,-1,-1,-1,-1,-1,-1,-1,-1,-1,-1,-1,-1,-1,-1,-1,-1,-1],"loss_changes":[2.2213374E3,3.1420374E2,1.4323865E2,2.0517139E2,7.218299E1,1.3519531E1,7.476048E1,9.459473E1,1.6389685E1,6.72273E1,1.9911018E1,7.7580566E0,0E0,2.6940264E1,7.118332E0,5.6877075E1,3.1762276E1,1.5818993E1,9.991746E0,2.2392493E2,1.3647671E1,5.6387877E0,1.0038536E1,4.986267E0,3.502388E0,2.8650791E1,7.84E0,1.5907459E1,0E0,4.6983887E1,1.768874E1,1.4966625E1,1.2476082E1,7.1152945E0,2.8061905E0,7.684608E0,2.5481606E0,0E0,5.942703E1,1.2231224E1,1.9074314E1,6.666666E-1,1.5923805E0,2.9468307E0,6.577915E0,5.937805E-1,8.22977E0,1.3547573E1,0E0,2.5986042E0,1.3978259E1,2.3333335E0,1.055687E0,1.6752548E0,3.8581982E0,0E0,0E0,0E0,0E0,0E0,0E0,0E0,0E0,0E0,0E0,0E0,0E0,0E0,0E0,0E0,0E0,0E0,0E0,0E0,0E0,0E0,0E0,0E0,0E0,0E0,0E0,0E0,0E0,0E0,0E0,0E0,0E0,0E0,0E0,0E0,0E0,0E0,0E0,0E0,0E0,0E0,0E0,0E0,0E0,0E0,0E0,0E0,0E0],"parents":[2147483647,0,0,1,1,2,2,3,3,4,4,5,5,6,6,7,7,8,8,9,9,10,10,11,11,13,13,14,14,15,15,16,16,17,17,18,18,19,19,20,20,21,21,22,22,23,23,24,24,25,25,26,26,27,27,29,29,30,30,31,31,32,32,33,33,34,34,35,35,36,36,38,38,39,39,40,40,41,41,42,42,43,43,44,44,45,45,46,46,47,47,49,49,50,50,51,51,52,52,53,53,54,54],"right_children":[2,4,6,8,10,12,14,16,18,20,22,24,-1,26,28,30,32,34,36,38,40,42,44,46,48,50,52,54,-1,56,58,60,62,64,66,68,70,-1,72,74,76,78,80,82,84,86,88,90,-1,92,94,96,98,100,102,-1,-1,-1,-1,-1,-1,-1,-1,-1,-1,-1,-1,-1,-1,-1,-1,-1,-1,-1,-1,-1,-1,-1,-1,-1,-1,-1,-1,-1,-1,-1,-1,-1,-1,-1,-1,-1,-1,-1,-1,-1,-1,-1,-1,-1,-1,-1,-1],"split_conditions":[1E0,1E0,9.38E1,2E0,1E0,2E0,2E0,2E0,8.285E1,2E0,2.095E1,2E0,-5.79409E-1,1E0,7.1E1,1E0,6.95E1,3.3256213E2,4.8E1,2E0,9.155E1,1.9430483E1,8.8E1,4.743348E3,2E0,5.5006E3,4.2E1,7.5815E3,-5.503449E-1,3E0,4.58E1,1E0,1.5E1,1E0,1E0,1E0,2E0,5.910448E-1,2.4874735E1,3E0,2.9E1,1E0,1E0,1E0,1.0359889E2,4.3293274E1,4.84705E3,1E0,-4.5000002E-1,1E0,1E0,2E0,1E0,9.655E1,2E0,4.3865943E-1,1.5967743E-1,-2.5714287E-1,1.7460318E-1,8.9655176E-2,-2.6746988E-1,3.452514E-1,1.4704226E-1,2.1176472E-1,-1.4400001E-1,-2.3333335E-1,-4.3880597E-1,2.0439562E-1,-5.454546E-2,-7.2000004E-2,-3.818182E-1,1.5449102E-1,-3.1551728E-1,1.0434783E-1,-2.332226E-1,2.9491526E-1,-1.4042553E-1,-0E0,-3E-1,4.4000003E-1,8.5714296E-2,-1.5555556E-1,-4.215385E-1,6.31579E-2,-3.8823533E-1,-2.4705884E-1,-5.2775925E-1,2.0000002E-1,-3.866667E-1,-3.323741E-1,3.818182E-1,-1.4366198E-1,-3.4468085E-1,2.0000002E-1,-1.6595745E-1,-2.0000002E-1,1.5E-1,-1.3846155E-1,-4.4788733E-1,-1.8E-1,-4.571429E-1,2.4705884E-1,-1.3043478E-1],"split_indices":[14,8,17,11,3,14,14,9,17,8,18,13,0,3,4,3,17,18,4,7,17,18,17,18,8,18,4,18,0,16,17,5,4,0,0,0,10,0,18,4,4,2,0,5,17,18,18,8,0,0,1,16,2,17,8,0,0,0,0,0,0,0,0,0,0,0,0,0,0,0,0,0,0,0,0,0,0,0,0,0,0,0,0,0,0,0,0,0,0,0,0,0,0,0,0,0,0,0,0,0,0,0,0],"split_type":[0,0,0,0,0,0,0,0,0,0,0,0,0,0,0,0,0,0,0,0,0,0,0,0,0,0,0,0,0,0,0,0,0,0,0,0,0,0,0,0,0,0,0,0,0,0,0,0,0,0,0,0,0,0,0,0,0,0,0,0,0,0,0,0,0,0,0,0,0,0,0,0,0,0,0,0,0,0,0,0,0,0,0,0,0,0,0,0,0,0,0,0,0,0,0,0,0,0,0,0,0,0,0],"sum_hessian":[2.069E3,1.388E3,6.81E2,1.03075E3,3.5725E2,4.9175E2,1.8925E2,9.2925E2,1.015E2,2.8475E2,7.25E1,2.305E2,2.6125E2,1.115E2,7.775E1,7.5725E2,1.72E2,5.175E1,4.975E1,1.6375E2,1.21E2,7.25E0,6.525E1,1.64E2,6.65E1,8.75E1,2.4E1,4.25E1,3.525E1,7.015E2,5.575E1,4.05E1,1.315E2,1.9E1,3.275E1,4E1,9.75E0,6.6E1,9.775E1,8.475E1,3.625E1,2E0,5.25E0,5.35E1,1.175E1,1.5175E2,1.225E1,3.55E1,3.1E1,2.75E1,6E1,5E0,1.9E1,3.45E1,8E0,6.405E2,6.1E1,9.5E0,4.625E1,2.075E1,1.975E1,4.375E1,8.775E1,7.5E0,1.15E1,1.7E1,1.575E1,2.175E1,1.825E1,5.25E0,4.5E0,4.075E1,5.7E1,1.05E1,7.425E1,1.375E1,2.25E1,1E0,1E0,2.75E0,2.5E0,5.75E0,4.775E1,8.5E0,3.25E0,3.25E0,1.485E2,2E0,1.025E1,3.375E1,1.75E0,1.675E1,1.075E1,4.925E1,1.075E1,2E0,3E0,2.25E0,1.675E1,4E0,3.05E1,3.25E0,4.75E0],"tree_param":{"num_deleted":"0","num_feature":"19","num_nodes":"103","size_leaf_vector":"1"}},{"base_weights":[-3.2324507E-3,5.2866906E-1,-1.1157635E0,7.3257124E-1,-5.8311876E-2,-1.3431994E0,-5.489593E-1,8.4265506E-1,-2.5287902E-1,1.0970721E-1,-7.124327E-1,-1.1728345E0,-4.474574E-1,-1.6900845E-1,-1.1069124E0,9.9197537E-1,3.3014622E-1,-4.3835616E-1,3.048638E-1,4.1950175E-1,-2.9633245E-1,2.7246746E-1,-8.8225836E-1,-1.043507E0,-1.4220518E0,1.689347E-2,-8.434299E-1,-8.881759E-1,-4.4361758E-1,1.0761415E0,2.0688628E-1,-2.8395984E-1,4.7188878E-1,-4.4659052E-2,-9.378349E-1,5.014511E-1,-6.296001E-1,4.5855212E-1,-2.877723E-1,-2.0083854E-1,-1.0776019E0,-1.7149013E-1,5.148534E-1,-1.0187254E0,-2.6468164E-1,1.584979E-1,-1.0596948E0,-5.7212436E-1,-4.3508622E-1,-5.928036E-1,3.0611202E-1,-1.9394127E-1,-1.1738186E0,-1.2358418E0,-5.077673E-1,3.6968985E-1,2.3606841E-1,2.964777E-1,-1.2610467E-1,1.5436979E-1,-2.4921507E-1,2.512469E-1,6.672918E-2,9.718455E-2,-1.1782002E-1,-1.891704E-1,-4.0507755E-1,2.0545687E-1,-4.1545372E-2,-3.1211004E-1,9.9845834E-2,1.0998155E-1,-2.2876182E-1,-1.173398E-1,9.778553E-2,-4.0692243E-1,-1.4731777E-1,-1.8538946E-2,2.8347245E-1,-3.241141E-1,-1.0268625E-1,1.2090014E-1,-2.1947895E-1,-3.6473918E-1,-2.543892E-1,4.465045E-2,-3.1864223E-1,-6.884821E-2,-2.6085356E-1,2.3059486E-1,-2.8090155E-2,1.0551027E-1,-1.7125705E-1,-5.1033124E-2,-3.7873995E-1,1.2473713E-1,-4.0070167E-1,6.4723164E-2,-2.685864E-1],"categories":[],"categories_nodes":[],"categories_segments":[],"categories_sizes":[],"default_left":[0,0,0,0,0,0,0,0,0,0,0,0,0,0,0,0,0,0,0,0,0,0,0,0,0,0,0,0,0,0,0,0,0,0,0,0,0,0,0,0,0,0,0,0,0,0,0,0,0,0,0,0,0,0,0,0,0,0,0,0,0,0,0,0,0,0,0,0,0,0,0,0,0,0,0,0,0,0,0,0,0,0,0,0,0,0,0,0,0,0,0,0,0,0,0,0,0,0,0],"id":1,"left_children":[1,3,5,7,9,11,13,15,17,19,21,23,-1,25,27,29,31,33,35,37,39,41,43,45,47,49,51,53,-1,55,57,59,61,63,65,67,69,-1,71,73,75,-1,77,79,81,-1,83,85,-1,87,89,91,93,95,97,-1,-1,-1,-1,-1,-1,-1,-1,-1,-1,-1,-1,-1,-1,-1,-1,-1,-1,-1,-1,-1,-1,-1,-1,-1,-1,-1,-1,-1,-1,-1,-1,-1,-1,-1,-1,-1,-1,-1,-1,-1,-1,-1,-1],"loss_changes":[1.175306E3,1.6086673E2,8.207855E1,1.0840796E2,3.825419E1,9.818237E0,3.9170532E1,6.834607E1,1.0580627E1,3.499723E1,1.2136318E1,5.533844E0,0E0,1.4009296E1,4.7886963E0,4.566211E1,1.7887709E1,1.4941398E1,5.0538135E0,1.2411009E2,8.778552E0,2.5907056E0,4.8627663E0,4.302887E0,8.8931274E-1,1.5784447E1,4.952368E0,5.9512177E0,0E0,2.7347656E1,3.3974895E1,1.7399185E1,1.4961281E1,5.728877E0,3.3983383E0,2.661179E0,2.2937496E0,0E0,3.0450134E1,1.1020435E1,1.4438906E0,0E0,2.3513417E0,1.6956978E0,4.151914E0,0E0,3.7925415E0,1.5552008E0,0E0,2.6967115E0,1.1290597E1,2.1210775E0,1.1913033E0,4.725666E0,7.328796E0,0E0,0E0,0E0,0E0,0E0,0E0,0E0,0E0,0E0,0E0,0E0,0E0,0E0,0E0,0E0,0E0,0E0,0E0,0E0,0E0,0E0,0E0,0E0,0E0,0E0,0E0,0E0,0E0,0E0,0E0,0E0,0E0,0E0,0E0,0E0,0E0,0E0,0E0,0E0,0E0,0E0,0E0,0E0,0E0],"parents":[2147483647,0,0,1,1,2,2,3,3,4,4,5,5,6,6,7,7,8,8,9,9,10,10,11,11,13,13,14,14,15,15,16,16,17,17,18,18,19,19,20,20,21,21,22,22,23,23,24,24,25,25,26,26,27,27,29,29,30,30,31,31,32,32,33,33,34,34,35,35,36,36,38,38,39,39,40,40,42,42,43,43,44,44,46,46,47,47,49,49,50,50,51,51,52,52,53,53,54,54],"right_children":[2,4,6,8,10,12,14,16,18,20,22,24,-1,26,28,30,32,34,36,38,40,42,44,46,48,50,52,54,-1,56,58,60,62,64,66,68,70,-1,72,74,76,-1,78,80,82,-1,84,86,-1,88,90,92,94,96,98,-1,-1,-1,-1,-1,-1,-1,-1,-1,-1,-1,-1,-1,-1,-1,-1,-1,-1,-1,-1,-1,-1,-1,-1,-1,-1,-1,-1,-1,-1,-1,-1,-1,-1,-1,-1,-1,-1,-1,-1,-1,-1,-1,-1],"split_conditions":[1E0,1E0,9.3405525E1,2E0,1E0,2E0,2E0,1E0,9.745E1,2E0,2E0,2E0,-4.474574E-1,1E0,7.2E1,3E0,6.015E1,1.7E1,5.6E1,2E0,5.4E1,1.9430483E1,8.8E1,2.58E1,4.3293274E1,5.5006E3,5E1,1.0595E2,-4.4361758E-1,1E0,8.55E1,3.4035E2,1.47625E3,1E0,2E0,1E0,6.4E1,4.5855212E-1,2.4874735E1,9.155E1,6.128204E3,-1.7149013E-1,1E0,2E0,3.1E1,1.584979E-1,1E0,1.99E1,-4.3508622E-1,2E0,1E0,1E0,2E0,9.42E1,1E0,3.6968985E-1,2.3606841E-1,2.964777E-1,-1.2610467E-1,1.5436979E-1,-2.4921507E-1,2.512469E-1,6.672918E-2,9.718455E-2,-1.1782002E-1,-1.891704E-1,-4.0507755E-1,2.0545687E-1,-4.1545372E-2,-3.1211004E-1,9.9845834E-2,1.0998155E-1,-2.2876182E-1,-1.173398E-1,9.778553E-2,-4.0692243E-1,-1.4731777E-1,-1.8538946E-2,2.8347245E-1,-3.241141E-1,-1.0268625E-1,1.2090014E-1,-2.1947895E-1,-3.6473918E-1,-2.543892E-1,4.465045E-2,-3.1864223E-1,-6.884821E-2,-2.6085356E-1,2.3059486E-1,-2.8090155E-2,1.0551027E-1,-1.7125705E-1,-5.1033124E-2,-3.7873995E-1,1.2473713E-1,-4.0070167E-1,6.4723164E-2,-2.685864E-1],"split_indices":[14,8,17,11,3,14,14,2,17,8,4,7,0,3,4,16,17,4,4,7,4,18,17,17,18,18,4,17,0,0,18,18,18,0,10,1,4,0,18,17,18,0,2,10,4,0,13,17,0,9,2,0,12,17,16,0,0,0,0,0,0,0,0,0,0,0,0,0,0,0,0,0,0,0,0,0,0,0,0,0,0,0,0,0,0,0,0,0,0,0,0,0,0,0,0,0,0,0,0],"split_type":[0,0,0,0,0,0,0,0,0,0,0,0,0,0,0,0,0,0,0,0,0,0,0,0,0,0,0,0,0,0,0,0,0,0,0,0,0,0,0,0,0,0,0,0,0,0,0,0,0,0,0,0,0,0,0,0,0,0,0,0,0,0,0,0,0,0,0,0,0,0,0,0,0,0,0,0,0,0,0,0,0,0,0,0,0,0,0,0,0,0,0,0,0,0,0,0,0,0,0],"sum_hessian":[1.9841328E3,1.3427083E3,6.414245E2,9.963527E2,3.4635556E2,4.5677084E2,1.8465367E2,8.963654E2,9.998728E1,2.7623376E2,7.01218E1,2.1673657E2,2.4003429E2,1.1062438E2,7.402929E1,6.9340515E2,2.0296027E2,7.51952E1,2.4792078E1,1.5666812E2,1.19565636E2,1.0223935E1,5.9897865E1,1.4610481E2,7.063176E1,8.7484535E1,2.3139854E1,4.87428E1,2.528649E1,6.25931E2,6.7474144E1,3.787252E1,1.6508775E2,4.265962E1,3.253558E1,2.0865824E1,3.926253E0,6.05557E1,9.611242E1,1.0766313E2,1.1902506E1,1.9778333E0,8.246101E0,4.852554E1,1.1372325E1,1.166846E0,1.4493796E2,2.9546833E0,6.767707E1,2.7809689E1,5.9674843E1,8.337242E0,1.4802611E1,2.4292498E1,2.4450302E1,4.0436362E2,2.215674E2,2.978908E1,3.7685066E1,1.5416281E1,2.245624E1,6.600091E1,9.908684E1,2.0752365E1,2.1907255E1,2.009396E1,1.2441622E1,1.6163252E1,4.7025723E0,2.6950135E0,1.2312396E0,4.0507812E1,5.5604607E1,7.928153E1,2.83816E1,7.1779866E0,4.7245193E0,3.888462E0,4.35764E0,4.3924786E1,4.6007557E0,4.7363267E0,6.6359982E0,8.069898E1,6.4238976E1,1.4773417E0,1.4773417E0,1.2814285E1,1.4995403E1,2.7236832E1,3.243801E1,3.4335532E0,4.903689E0,1.438155E0,1.3364456E1,1.2042344E0,2.3088264E1,8.682716E0,1.5767586E1],"tree_param":{"num_deleted":"0","num_feature":"19","num_nodes":"99","size_leaf_vector":"1"}},{"base_weights":[-6.4670043E-3,4.0060842E-1,-9.0654546E-1,5.090417E-1,-3.3032355E-1,-1.1190003E0,-4.2969325E-1,6.147273E-1,-9.8711334E-2,4.1221127E-1,-5.7603014E-1,-9.486882E-1,-3.8313845E-1,-2.2837414E-1,-1.1958961E0,6.962805E-1,-1.6990817E-1,5.803013E-1,-5.272618E-1,-2.0366447E-1,8.09962E-1,-9.834889E-1,-3.6753264E-1,-6.949781E-1,-1.0665897E0,-3.3334225E-1,6.747781E-1,-6.684541E-2,-3.6520222E-1,7.6413375E-1,1.4502533E-2,1.468036E-1,-5.6614697E-1,4.346059E-1,9.802076E-1,-3.1259626E-1,-1.0477293E0,3.6093208E-1,-6.1850655E-1,1.0027211E0,-6.4429395E-2,3.834647E-2,-1.0537539E0,-2.5387892E-1,-1.0752364E0,-3.8967833E-2,-8.189723E-1,-1.2304808E0,-7.653705E-1,2.5692042E-2,-7.516246E-1,9.3734574E-1,-1.8327898E-1,2.4297161E-1,-7.213004E-2,-3.0713914E-2,5.330542E-1,1.1233299E-1,-2.6936254E-1,-2.1122845E-1,1.4503344E-2,5.8014195E-2,2.1469761E-1,3.1472138E-1,1.5600487E-2,-2.1886362E-1,-5.9924196E-3,-4.1645876E-1,-6.29612E-2,-1.3942856E-1,2.1325907E-1,-2.0283617E-2,-3.230586E-1,3.3483598E-1,9.0596914E-2,-1.5102166E-1,2.5610143E-1,1.3891697E-1,-1.20890446E-1,-3.3596864E-1,-6.882134E-2,-9.170811E-2,3.254738E-1,-4.203192E-1,5.5810224E-2,3.445098E-1,-1.1550324E-1,-2.7270806E-1,2.35812E-3,-1.4499086E-1,-3.753692E-1,3.584472E-1,-2.5908667E-1,-6.1408993E-2,4.985983E-1,2.3206082E-1,-2.392185E-1,4.457204E-1,1.2562048E-1],"categories":[],"categories_nodes":[],"categories_segments":[],"categories_sizes":[],"default_left":[0,0,0,0,0,0,0,0,0,0,0,0,0,0,0,0,0,0,0,0,0,0,0,0,0,0,0,0,0,0,0,0,0,0,0,0,0,0,0,0,0,0,0,0,0,0,0,0,0,0,0,0,0,0,0,0,0,0,0,0,0,0,0,0,0,0,0,0,0,0,0,0,0,0,0,0,0,0,0,0,0,0,0,0,0,0,0,0,0,0,0,0,0,0,0,0,0,0,0],"id":2,"left_children":[1,3,5,7,9,11,13,15,17,19,21,23,-1,25,27,29,31,33,35,37,39,41,43,45,47,49,51,-1,-1,53,55,57,59,61,63,65,67,69,71,73,75,77,79,81,83,85,87,89,91,93,95,97,-1,-1,-1,-1,-1,-1,-1,-1,-1,-1,-1,-1,-1,-1,-1,-1,-1,-1,-1,-1,-1,-1,-1,-1,-1,-1,-1,-1,-1,-1,-1,-1,-1,-1,-1,-1,-1,-1,-1,-1,-1,-1,-1,-1,-1,-1,-1],"loss_changes":[6.7290405E2,1.0039746E2,5.7461334E1,7.0819336E1,3.0153875E1,9.427032E0,2.7168419E1,6.017758E1,4.804378E1,1.0294723E1,1.0140793E1,5.064102E0,0E0,1.3698248E1,4.9627686E-1,3.9329437E1,1.1273706E1,3.3001862E0,1.0967962E1,4.2109714E0,4.333254E0,3.002037E0,6.4330378E0,5.210129E0,5.507126E0,1.9240814E1,5.6798444E0,0E0,0E0,3.5756714E1,1.6247713E1,1.2310878E1,3.4093914E0,3.1614113E0,9.861345E-1,8.892363E0,8.008865E0,2.5964346E0,2.4984436E0,1.3166981E0,2.6521337E0,8.648726E-1,1.8493462E0,5.4057407E0,4.874694E0,5.0826926E0,4.039192E0,6.813965E-1,1.0406549E1,2.6669119E1,4.745987E0,3.0630083E0,0E0,0E0,0E0,0E0,0E0,0E0,0E0,0E0,0E0,0E0,0E0,0E0,0E0,0E0,0E0,0E0,0E0,0E0,0E0,0E0,0E0,0E0,0E0,0E0,0E0,0E0,0E0,0E0,0E0,0E0,0E0,0E0,0E0,0E0,0E0,0E0,0E0,0E0,0E0,0E0,0E0,0E0,0E0,0E0,0E0,0E0,0E0],"parents":[2147483647,0,0,1,1,2,2,3,3,4,4,5,5,6,6,7,7,8,8,9,9,10,10,11,11,13,13,14,14,15,15,16,16,17,17,18,18,19,19,20,20,21,21,22,22,23,23,24,24,25,25,26,26,29,29,30,30,31,31,32,32,33,33,34,34,35,35,36,36,37,37,38,38,39,39,40,40,41,41,42,42,43,43,44,44,45,45,46,46,47,47,48,48,49,49,50,50,51,51],"right_children":[2,4,6,8,10,12,14,16,18,20,22,24,-1,26,28,30,32,34,36,38,40,42,44,46,48,50,52,-1,-1,54,56,58,60,62,64,66,68,70,72,74,76,78,80,82,84,86,88,90,92,94,96,98,-1,-1,-1,-1,-1,-1,-1,-1,-1,-1,-1,-1,-1,-1,-1,-1,-1,-1,-1,-1,-1,-1,-1,-1,-1,-1,-1,-1,-1,-1,-1,-1,-1,-1,-1,-1,-1,-1,-1,-1,-1,-1,-1,-1,-1,-1,-1],"split_conditions":[1E0,1E0,9.255E1,3E0,5E0,2E0,7.1E1,2E0,2E0,4.535E1,5.475E1,1E0,-3.8313845E-1,7.5815E3,9.44E1,2E0,1E0,5.08E1,1.8E1,2.095E1,2E0,1.9441988E1,5.2E1,1.0716E3,5.93E1,2E0,2E0,-6.684541E-2,-3.6520222E-1,2E0,1E0,4.4E1,3.96505E3,1E0,1E0,3.545E1,2.16505E3,1.9430483E1,1E0,1E0,2.566E2,2.1E1,2E0,5.015738E3,6.1858E3,1E0,5.015738E3,4.3293274E1,2E0,1E0,2E1,2E0,-1.8327898E-1,2.4297161E-1,-7.213004E-2,-3.0713914E-2,5.330542E-1,1.1233299E-1,-2.6936254E-1,-2.1122845E-1,1.4503344E-2,5.8014195E-2,2.1469761E-1,3.1472138E-1,1.5600487E-2,-2.1886362E-1,-5.9924196E-3,-4.1645876E-1,-6.29612E-2,-1.3942856E-1,2.1325907E-1,-2.0283617E-2,-3.230586E-1,3.3483598E-1,9.0596914E-2,-1.5102166E-1,2.5610143E-1,1.3891697E-1,-1.20890446E-1,-3.3596864E-1,-6.882134E-2,-9.170811E-2,3.254738E-1,-4.203192E-1,5.5810224E-2,3.445098E-1,-1.1550324E-1,-2.7270806E-1,2.35812E-3,-1.4499086E-1,-3.753692E-1,3.584472E-1,-2.5908667E-1,-6.1408993E-2,4.985983E-1,2.3206082E-1,-2.392185E-1,4.457204E-1,1.2562048E-1],"split_indices":[14,3,17,16,4,14,4,11,4,17,17,8,0,18,17,8,0,17,4,18,9,17,4,18,17,11,16,0,0,7,11,4,18,15,9,17,18,18,0,8,18,4,10,18,18,16,18,18,8,11,4,8,0,0,0,0,0,0,0,0,0,0,0,0,0,0,0,0,0,0,0,0,0,0,0,0,0,0,0,0,0,0,0,0,0,0,0,0,0,0,0,0,0,0,0,0,0,0,0],"split_type":[0,0,0,0,0,0,0,0,0,0,0,0,0,0,0,0,0,0,0,0,0,0,0,0,0,0,0,0,0,0,0,0,0,0,0,0,0,0,0,0,0,0,0,0,0,0,0,0,0,0,0,0,0,0,0,0,0,0,0,0,0,0,0,0,0,0,0,0,0,0,0,0,0,0,0,0,0,0,0,0,0,0,0,0,0,0,0,0,0,0,0,0,0,0,0,0,0,0,0],"sum_hessian":[1.8345382E3,1.2636062E3,5.70932E2,1.1006318E3,1.6297446E2,3.9403052E2,1.7690149E2,9.3757935E2,1.6305246E2,4.0351875E1,1.2262259E2,1.9307642E2,2.009541E2,1.4112032E2,3.5781174E1,8.494066E2,8.817271E1,6.295303E1,1.0009942E2,1.60257E1,2.4326176E1,4.0248814E1,8.237377E1,6.344496E1,1.2963145E2,1.26991714E2,1.4128594E1,1.0171475E0,3.4764027E1,7.724123E2,7.699432E1,4.935389E1,3.881882E1,4.7671825E1,1.5281205E1,7.20027E1,2.8096724E1,6.842741E0,9.182959E0,1.981189E1,4.514285E0,2.618806E0,3.763001E1,7.214619E1,1.0227583E1,1.0294511E1,5.315045E1,8.195524E1,4.7676212E1,6.884065E1,5.8151066E1,1.1957566E1,2.1710281E0,7.389375E2,3.3474834E1,7.308883E1,3.905491E0,4.105041E1,8.303478E0,3.1582922E1,7.2358985E0,2.6561968E1,2.1109858E1,1.4104573E1,1.1766312E0,2.9077608E1,4.292509E1,1.9511377E1,8.585346E0,1.9391041E0,4.903637E0,4.691629E0,4.4913297E0,1.65421E1,3.2697887E0,3.3596208E0,1.154664E0,1.309403E0,1.309403E0,3.450313E1,3.126878E0,7.02009E1,1.945296E0,8.0398035E0,2.1877794E0,1.799962E0,8.49455E0,4.7840492E1,5.3099604E0,2.8708565E0,7.908438E1,1.7429149E0,4.5933296E1,6.1111195E1,7.7294536E0,1.2310115E0,5.6920055E1,4.905531E0,7.0520353E0],"tree_param":{"num_deleted":"0","num_feature":"19","num_nodes":"99","size_leaf_vector":"1"}},{"base_weights":[-8.332408E-3,3.0501607E-1,-7.49724E-1,6.1331695E-1,1.2782505E-1,-9.5981133E-1,-3.1359574E-1,3.4722656E-1,8.9666545E-1,-2.8199244E-1,4.0229496E-1,-7.7858174E-1,-1.1419054E0,-4.1036695E-2,-7.8484726E-1,7.453117E-1,2.2247729E-1,1.1078426E0,7.278381E-1,3.3530268E-1,-5.098578E-1,6.2516266E-1,-5.8475416E-2,-9.368709E-1,-5.690925E-1,-9.265438E-1,-3.5344234E-1,9.50288E-2,-5.71615E-1,-6.103354E-1,-3.4123036E-1,8.5191184E-1,-4.8185158E-1,2.566348E-1,-1.1959691E0,3.3893526E-1,-1.3242593E-2,1.1882778E0,4.979252E-1,4.4638443E-1,-7.611718E-2,-6.861394E-1,-4.0739857E-2,4.9502432E-1,4.146902E-1,-3.27291E-1,2.3565038E-1,-5.950192E-1,-1.0373591E0,4.350488E-2,-6.763222E-1,-3.3806518E-1,-4.7214493E-1,2.6424044E-1,-5.0557005E-1,-8.75716E-2,-8.5550207E-1,-9.264374E-1,-2.996883E-1,2.8578058E-1,-4.7491588E-2,5.1763244E-2,-2.9055536E-1,-1.42856E-1,9.797918E-2,-1.1449641E-1,-4.0974632E-1,2.725286E-1,3.9187935E-1,1.7951655E-1,-1.0206082E-1,-7.187919E-2,3.2287E-1,-1.4755139E-1,-2.7284735E-1,9.94422E-2,-1.9662271E-1,2.0974936E-1,-3.6172818E-3,4.482102E-3,-3.0598995E-1,1.2039698E-1,-1.0356696E-1,1.7176084E-2,-2.740581E-1,-3.2737476E-1,-1.4381678E-1,2.4386336E-1,-2.8258133E-1,-1.1204677E-1,-2.6402476E-1,3.5359293E-1,-2.691422E-1,1.0798308E-1,-3.534294E-1,-2.6280758E-1,8.597669E-2,1.3968639E-1,-1.2549044E-1,-5.2548596E-3,-2.8374258E-1,-8.429229E-2,-3.4316933E-1,9.408971E-2,-1.7224237E-1],"categories":[],"categories_nodes":[],"categories_segments":[],"categories_sizes":[],"default_left":[0,0,0,0,0,0,0,0,0,0,0,0,0,0,0,0,0,0,0,0,0,0,0,0,0,0,0,0,0,0,0,0,0,0,0,0,0,0,0,0,0,0,0,0,0,0,0,0,0,0,0,0,0,0,0,0,0,0,0,0,0,0,0,0,0,0,0,0,0,0,0,0,0,0,0,0,0,0,0,0,0,0,0,0,0,0,0,0,0,0,0,0,0,0,0,0,0,0,0,0,0,0,0,0,0],"id":3,"left_children":[1,3,5,7,9,11,13,15,17,19,21,23,25,27,29,31,33,35,37,39,41,43,45,47,49,51,-1,53,55,57,-1,59,61,63,65,-1,-1,67,69,-1,71,73,75,77,-1,79,81,83,85,87,89,-1,91,93,95,97,99,101,103,-1,-1,-1,-1,-1,-1,-1,-1,-1,-1,-1,-1,-1,-1,-1,-1,-1,-1,-1,-1,-1,-1,-1,-1,-1,-1,-1,-1,-1,-1,-1,-1,-1,-1,-1,-1,-1,-1,-1,-1,-1,-1,-1,-1,-1,-1],"loss_changes":[3.9154074E2,6.463992E1,4.557605E1,3.2269043E1,8.487863E1,1.0246674E1,2.1066778E1,1.0982019E1,6.6322937E0,4.2770355E1,4.6425262E1,5.1790543E0,2.0518494E-1,7.6438904E0,3.0061073E0,7.361477E0,8.657087E0,2.3444366E0,1.1991245E1,3.912086E1,1.829744E1,2.9324005E1,1.1793076E1,2.7003021E0,5.066967E0,2.072939E0,0E0,8.724083E0,2.893189E0,3.8844376E0,0E0,5.160469E0,1.7230276E0,8.8260145E0,6.369209E-2,0E0,0E0,9.659195E-2,7.023716E0,0E0,1.1856884E1,6.5400314E0,1.430815E1,2.707164E1,0E0,1.8467571E1,7.0039816E0,5.0975113E0,1.6806488E0,1.0139351E1,3.7021847E0,0E0,8.407855E0,9.617973E0,5.804317E0,1.8595003E0,1.0051117E0,2.5602531E0,4.0272474E0,0E0,0E0,0E0,0E0,0E0,0E0,0E0,0E0,0E0,0E0,0E0,0E0,0E0,0E0,0E0,0E0,0E0,0E0,0E0,0E0,0E0,0E0,0E0,0E0,0E0,0E0,0E0,0E0,0E0,0E0,0E0,0E0,0E0,0E0,0E0,0E0,0E0,0E0,0E0,0E0,0E0,0E0,0E0,0E0,0E0,0E0],"parents":[2147483647,0,0,1,1,2,2,3,3,4,4,5,5,6,6,7,7,8,8,9,9,10,10,11,11,12,12,13,13,14,14,15,15,16,16,17,17,18,18,19,19,20,20,21,21,22,22,23,23,24,24,25,25,27,27,28,28,29,29,31,31,32,32,33,33,34,34,37,37,38,38,40,40,41,41,42,42,43,43,45,45,46,46,47,47,48,48,49,49,50,50,52,52,53,53,54,54,55,55,56,56,57,57,58,58],"right_children":[2,4,6,8,10,12,14,16,18,20,22,24,26,28,30,32,34,36,38,40,42,44,46,48,50,52,-1,54,56,58,-1,60,62,64,66,-1,-1,68,70,-1,72,74,76,78,-1,80,82,84,86,88,90,-1,92,94,96,98,100,102,104,-1,-1,-1,-1,-1,-1,-1,-1,-1,-1,-1,-1,-1,-1,-1,-1,-1,-1,-1,-1,-1,-1,-1,-1,-1,-1,-1,-1,-1,-1,-1,-1,-1,-1,-1,-1,-1,-1,-1,-1,-1,-1,-1,-1,-1,-1],"split_conditions":[1E0,6E0,9.38E1,6.57E1,7.61E1,2E0,2E0,1E0,1.185E2,1E0,2E0,2.27765E3,1E0,1E0,7.2E1,1E0,6.39E1,2E0,2E0,1E0,7.075E1,1E0,9.615E1,1E0,2.60635E3,4.743348E3,-3.5344234E-1,1E0,5E1,1.0595E2,-3.4123036E-1,2E0,3E0,1.96E1,1.8186815E2,3.3893526E-1,-1.3242593E-2,7.52E1,3E0,4.4638443E-1,5.525E1,1E0,2E0,2E0,4.146902E-1,3.3769714E3,2E0,4.495E1,2E0,1E0,2E0,-3.3806518E-1,4.84705E3,3E0,1.0595E2,1E0,2E0,5.673455E3,1.0972522E2,2.8578058E-1,-4.7491588E-2,5.1763244E-2,-2.9055536E-1,-1.42856E-1,9.797918E-2,-1.1449641E-1,-4.0974632E-1,2.725286E-1,3.9187935E-1,1.7951655E-1,-1.0206082E-1,-7.187919E-2,3.2287E-1,-1.4755139E-1,-2.7284735E-1,9.94422E-2,-1.9662271E-1,2.0974936E-1,-3.6172818E-3,4.482102E-3,-3.0598995E-1,1.2039698E-1,-1.0356696E-1,1.7176084E-2,-2.740581E-1,-3.2737476E-1,-1.4381678E-1,2.4386336E-1,-2.8258133E-1,-1.1204677E-1,-2.6402476E-1,3.5359293E-1,-2.691422E-1,1.0798308E-1,-3.534294E-1,-2.6280758E-1,8.597669E-2,1.3968639E-1,-1.2549044E-1,-5.2548596E-3,-2.8374258E-1,-8.429229E-2,-3.4316933E-1,9.408971E-2,-1.7224237E-1],"split_indices":[14,4,17,17,17,14,14,5,18,5,9,18,9,3,4,3,17,11,16,6,17,9,17,11,18,18,0,1,4,17,0,11,16,17,18,0,0,17,16,0,17,0,6,10,0,18,11,17,12,8,9,0,18,16,17,10,12,18,17,0,0,0,0,0,0,0,0,0,0,0,0,0,0,0,0,0,0,0,0,0,0,0,0,0,0,0,0,0,0,0,0,0,0,0,0,0,0,0,0,0,0,0,0,0,0],"split_type":[0,0,0,0,0,0,0,0,0,0,0,0,0,0,0,0,0,0,0,0,0,0,0,0,0,0,0,0,0,0,0,0,0,0,0,0,0,0,0,0,0,0,0,0,0,0,0,0,0,0,0,0,0,0,0,0,0,0,0,0,0,0,0,0,0,0,0,0,0,0,0,0,0,0,0,0,0,0,0,0,0,0,0,0,0,0,0,0,0,0,0,0,0,0,0,0,0,0,0,0,0,0,0,0,0],"sum_hessian":[1.6834106E3,1.1837067E3,4.9970398E2,4.3112167E2,7.52585E2,3.3643777E2,1.632662E2,2.2347937E2,2.0764229E2,3.0185333E2,4.5073172E2,1.7126328E2,1.651745E2,1.0412831E2,5.9137894E1,5.2135674E1,1.7134369E2,8.97797E1,1.1786259E2,8.1256134E1,2.205972E2,3.035516E2,1.4718011E2,9.557503E1,7.568825E1,2.7615486E1,1.37559E2,8.352852E1,2.0599789E1,4.138537E1,1.7752527E1,4.8250114E1,3.885561E0,1.6811441E2,3.229281E0,8.812057E1,1.6591388E0,3.786436E1,7.999823E1,2.068575E1,6.0570385E1,1.6000797E2,6.0589226E1,2.6044043E2,4.3111187E1,7.683979E1,7.034032E1,2.3284536E1,7.22905E1,1.1363501E1,6.432475E1,1.8138464E1,9.477022E0,6.5605095E1,1.7923424E1,8.099005E0,1.2500784E1,1.9530071E1,2.1855295E1,4.39287E1,4.3214145E0,1.9324921E0,1.9530687E0,1.4145115E1,1.539693E2,1.1177037E0,2.1115773E0,1.3809469E1,2.4054892E1,7.169093E1,8.30729E0,5.373873E1,6.831655E0,8.728113E1,7.2726845E1,3.802429E1,2.2564938E1,1.8541684E2,7.502358E1,5.2084663E1,2.4755129E1,5.4970966E1,1.53693495E1,7.908645E0,1.537589E1,6.505189E1,7.238602E0,6.479679E0,4.883821E0,2.7011961E1,3.731279E1,1.5772579E0,7.899764E0,6.2226635E1,3.3784654E0,1.2140171E1,5.7832527E0,2.8777304E0,5.221274E0,1.3322573E0,1.1168527E1,5.499273E0,1.4030798E1,6.7123766E0,1.514292E1],"tree_param":{"num_deleted":"0","num_feature":"19","num_nodes":"105","size_leaf_vector":"1"}},{"base_weights":[-9.198218E-3,2.3417269E-1,-6.3089406E-1,3.4119418E-1,-1.4103703E-1,-8.397809E-1,-2.5639164E-1,4.2278343E-1,-2.083116E-1,-3.6709294E-1,4.8345566E-2,-6.487113E-1,-1.0520161E0,-1.1610534E-1,-9.240719E-1,3.3360735E-1,3.966997E-1,2.3120189E-1,-4.284751E-1,3.3060414E-1,-5.116619E-1,2.9139587E-1,-2.3725027E-1,-8.180617E-1,-4.5991468E-1,-8.441105E-1,-3.2618093E-1,1.0534103E-1,-4.1526738E-1,-5.921019E-1,-3.1500128E-1,5.020011E-1,-4.612846E-3,-1.3268389E-1,6.320747E-1,1.70094E-2,-6.845889E-1,1.0397971E-1,3.6122328E-1,-7.747952E-1,-2.910156E-1,5.998062E-1,1.1646151E-2,3.302805E-1,-3.99017E-1,-3.745499E-1,-9.672057E-1,-2.761788E-1,-6.283512E-1,-3.1021997E-1,-4.2307916E-1,-4.1813217E-2,4.2496824E-1,-5.4284775E-1,3.7384444E-1,-7.323221E-1,6.815175E-2,1.710718E-1,-4.7304813E-2,-8.557994E-2,1.0526053E-1,-4.0806678E-1,3.0070074E-2,2.7981645E-1,-1.5134454E-1,1.287816E-1,-1.6683754E-1,2.0986928E-2,-2.4024749E-1,-1.2076341E-1,2.249118E-1,-2.8105482E-1,-7.871623E-2,-2.0826657E-3,-2.0047744E-1,2.0267865E-1,-9.271428E-2,6.379489E-2,-1.2928408E-1,-5.0220466E-1,2.3203161E-1,-4.297788E-1,-5.702148E-2,1.03868954E-1,-1.8008713E-1,-5.08867E-2,-3.0006778E-1,4.0715095E-2,-2.1319397E-1,-9.837536E-2,-2.562626E-1,2.4911746E-1,-2.6350248E-1,8.628071E-2,-7.872832E-2,-9.047347E-2,-3.2529774E-1,2.9119414E-1,-5.6626495E-2,-2.563199E-1,2.8465852E-2],"categories":[],"categories_nodes":[],"categories_segments":[],"categories_sizes":[],"default_left":[0,0,0,0,0,0,0,0,0,0,0,0,0,0,0,0,0,0,0,0,0,0,0,0,0,0,0,0,0,0,0,0,0,0,0,0,0,0,0,0,0,0,0,0,0,0,0,0,0,0,0,0,0,0,0,0,0,0,0,0,0,0,0,0,0,0,0,0,0,0,0,0,0,0,0,0,0,0,0,0,0,0,0,0,0,0,0,0,0,0,0,0,0,0,0,0,0,0,0,0,0],"id":4,"left_children":[1,3,5,7,9,11,13,15,17,19,21,23,25,27,29,31,-1,33,35,37,39,41,43,45,47,49,-1,51,53,55,-1,57,59,61,63,65,67,69,-1,71,73,75,77,79,81,83,85,87,89,-1,91,93,-1,95,97,99,-1,-1,-1,-1,-1,-1,-1,-1,-1,-1,-1,-1,-1,-1,-1,-1,-1,-1,-1,-1,-1,-1,-1,-1,-1,-1,-1,-1,-1,-1,-1,-1,-1,-1,-1,-1,-1,-1,-1,-1,-1,-1,-1,-1,-1],"loss_changes":[2.357204E2,4.500899E1,3.407187E1,3.91595E1,1.0686067E1,1.0709305E1,1.4727029E1,6.0455536E1,1.1065981E1,1.1639071E1,9.542803E0,4.4337463E0,4.5913696E-2,8.789812E0,5.2186966E-1,3.9414948E1,0E0,5.6962442E0,8.666993E0,3.8587246E0,5.2663155E0,6.393177E0,5.9431543E0,4.798538E0,2.098648E0,1.4446678E0,0E0,1.4851126E1,5.876812E0,1.2940302E0,0E0,2.08871E1,2.3147017E1,6.1389165E0,6.7853484E0,7.012539E0,4.2827873E0,5.8864117E0,0E0,3.2865715E0,5.680409E0,2.6377745E0,3.642826E0,1.4251818E1,1.0463526E1,3.668015E0,1.351368E0,6.6997933E0,2.26585E0,0E0,5.8704605E0,5.1551714E0,0E0,6.0643167E0,3.0156317E0,9.5138454E-1,0E0,0E0,0E0,0E0,0E0,0E0,0E0,0E0,0E0,0E0,0E0,0E0,0E0,0E0,0E0,0E0,0E0,0E0,0E0,0E0,0E0,0E0,0E0,0E0,0E0,0E0,0E0,0E0,0E0,0E0,0E0,0E0,0E0,0E0,0E0,0E0,0E0,0E0,0E0,0E0,0E0,0E0,0E0,0E0,0E0],"parents":[2147483647,0,0,1,1,2,2,3,3,4,4,5,5,6,6,7,7,8,8,9,9,10,10,11,11,12,12,13,13,14,14,15,15,17,17,18,18,19,19,20,20,21,21,22,22,23,23,24,24,25,25,27,27,28,28,29,29,31,31,32,32,33,33,34,34,35,35,36,36,37,37,39,39,40,40,41,41,42,42,43,43,44,44,45,45,46,46,47,47,48,48,50,50,51,51,53,53,54,54,55,55],"right_children":[2,4,6,8,10,12,14,16,18,20,22,24,26,28,30,32,-1,34,36,38,40,42,44,46,48,50,-1,52,54,56,-1,58,60,62,64,66,68,70,-1,72,74,76,78,80,82,84,86,88,90,-1,92,94,-1,96,98,100,-1,-1,-1,-1,-1,-1,-1,-1,-1,-1,-1,-1,-1,-1,-1,-1,-1,-1,-1,-1,-1,-1,-1,-1,-1,-1,-1,-1,-1,-1,-1,-1,-1,-1,-1,-1,-1,-1,-1,-1,-1,-1,-1,-1,-1],"split_conditions":[1E0,2E0,9.255E1,2E0,8.325E1,2E0,7.1E1,1E0,2.04E1,1.3435347E2,1E0,5.93E1,1E0,2E0,1E0,1.8E1,3.966997E-1,1.995E1,1.995E1,1.076E2,2E1,3.02145E3,1.4E1,1E0,2E0,4.743348E3,-3.2618093E-1,1E0,7.7239E3,1E0,-3.1500128E-1,2E0,8.735E1,2E0,2.025E1,1E0,1E0,5.45E1,3.6122328E-1,7.645E1,1E0,3E0,1E0,1E0,1E0,9.2765E2,4.3293274E1,2E0,3.5816E3,-3.1021997E-1,4.84705E3,2E0,4.2496824E-1,6.59725E3,1E0,7.9876E3,6.815175E-2,1.710718E-1,-4.7304813E-2,-8.557994E-2,1.0526053E-1,-4.0806678E-1,3.0070074E-2,2.7981645E-1,-1.5134454E-1,1.287816E-1,-1.6683754E-1,2.0986928E-2,-2.4024749E-1,-1.2076341E-1,2.249118E-1,-2.8105482E-1,-7.871623E-2,-2.0826657E-3,-2.0047744E-1,2.0267865E-1,-9.271428E-2,6.379489E-2,-1.2928408E-1,-5.0220466E-1,2.3203161E-1,-4.297788E-1,-5.702148E-2,1.03868954E-1,-1.8008713E-1,-5.08867E-2,-3.0006778E-1,4.0715095E-2,-2.1319397E-1,-9.837536E-2,-2.562626E-1,2.4911746E-1,-2.6350248E-1,8.628071E-2,-7.872832E-2,-9.047347E-2,-3.2529774E-1,2.9119414E-1,-5.6626495E-2,-2.563199E-1,2.8465852E-2],"split_indices":[14,9,17,7,17,14,4,9,18,18,0,17,9,8,8,4,0,17,17,18,4,18,4,8,9,18,0,8,18,3,0,8,17,16,17,0,16,17,0,17,2,16,1,15,6,18,18,11,18,0,18,9,0,18,2,18,0,0,0,0,0,0,0,0,0,0,0,0,0,0,0,0,0,0,0,0,0,0,0,0,0,0,0,0,0,0,0,0,0,0,0,0,0,0,0,0,0,0,0,0,0],"split_type":[0,0,0,0,0,0,0,0,0,0,0,0,0,0,0,0,0,0,0,0,0,0,0,0,0,0,0,0,0,0,0,0,0,0,0,0,0,0,0,0,0,0,0,0,0,0,0,0,0,0,0,0,0,0,0,0,0,0,0,0,0,0,0,0,0,0,0,0,0,0,0,0,0,0,0,0,0,0,0,0,0,0,0,0,0,0,0,0,0,0,0,0,0,0,0,0,0,0,0,0,0],"sum_hessian":[1.555963E3,1.1186688E3,4.3729413E2,8.704734E2,2.4819547E2,2.7992014E2,1.5737398E2,7.5813763E2,1.1233578E2,1.127151E2,1.3548036E2,1.4943997E2,1.3048018E2,1.3101938E2,2.6354591E1,6.9100616E2,6.713149E1,3.74747E1,7.486108E1,1.912587E1,9.358923E1,7.3180954E1,6.2299408E1,7.702004E1,7.241992E1,2.2533634E1,1.0794655E2,7.566118E1,5.53582E1,8.816137E0,1.7538454E1,4.6099887E2,2.3000728E2,1.9994255E1,1.7480448E1,2.7668337E1,4.7192738E1,1.607438E1,3.0514889E0,4.1539513E1,5.2049717E1,3.4263283E1,3.8917667E1,1.3587676E1,4.871173E1,2.0266018E1,5.6754025E1,3.5899395E1,3.652053E1,1.4524572E1,8.009062E0,6.889717E1,6.7640104E0,4.7922382E1,7.4358172E0,7.618373E0,1.1977643E0,4.179059E2,4.3092937E1,1.2864172E2,1.0136555E2,2.416852E0,1.7577402E1,1.3965562E1,3.5148857E0,1.6238672E1,1.1429664E1,6.3526583E0,4.0840076E1,9.219202E0,6.8551793E0,3.0929434E1,1.0610082E1,3.0272295E1,2.1777422E1,3.1862888E1,2.4003954E0,2.7120459E1,1.1797209E1,1.9573941E0,1.1630281E1,7.206653E0,4.150508E1,4.706051E0,1.5559967E1,2.5001962E0,5.425383E1,1.8781385E1,1.711801E1,1.672499E1,1.979554E1,1.9143393E0,6.0947223E0,2.7512543E1,4.1384624E1,3.4228115E1,1.3694268E1,3.256281E0,4.1795363E0,6.6100106E0,1.0083622E0],"tree_param":{"num_deleted":"0","num_feature":"19","num_nodes":"101","size_leaf_vector":"1"}},{"base_weights":[-1.0048696E-2,1.770994E-1,-5.2437496E-1,3.3919898E-1,-3.952913E-2,-6.839013E-1,-6.696158E-2,4.2705932E-1,-1.6988619E-1,1.9004671E-1,-2.639953E-1,-4.9417022E-1,-9.522011E-1,3.6530283E-1,-3.4726712E-1,5.5355734E-1,8.3326876E-2,1.8933931E-1,-6.954455E-1,2.866044E-2,5.4595137E-1,-4.6657443E-1,2.637097E-1,-7.034225E-1,-3.263474E-1,-7.3295057E-1,-1.0020692E0,5.456763E-1,-6.838476E-1,-1.00395836E-1,-6.263698E-1,6.6461104E-1,-6.9944104E-3,2.2990793E-1,-2.1384001E-1,-7.889845E-1,2.83878E-1,-9.34764E-1,-2.7320474E-1,3.4040663E-1,-1.8871026E-2,1.1975375E-1,7.3671705E-1,-3.000195E-1,-1.0364078E0,4.384745E-1,-4.3490648E-1,-4.2159677E-1,-8.1607294E-1,-1.2103812E-1,-5.08034E-1,-3.2466736E-1,-8.704866E-1,-6.156727E-1,-3.1206512E-1,-5.470312E-1,7.056276E-1,5.406805E-2,-9.0069664E-1,-4.675151E-1,7.231557E-1,-8.8947766E-2,-8.0400646E-1,2.1882108E-1,1.1141536E-2,-1.43722E-1,7.1335696E-2,1.1774338E-1,-4.7709353E-2,-1.3161278E-1,7.62295E-2,-3.5541755E-1,-2.826364E-2,-4.7566935E-2,1.3552624E-1,1.9337999E-3,-3.1861424E-1,4.4587143E-3,-2.5283206E-1,6.368895E-2,-9.8385625E-2,1.0509026E-1,-2.3027253E-1,2.6979557E-1,2.9829592E-2,-2.565929E-1,-6.83759E-2,-3.8742915E-1,-1.8492202E-1,1.03770755E-1,3.8668844E-1,3.8334064E-2,-2.8883475E-1,3.4101333E-2,-2.3821361E-1,-4.0687267E-2,-2.5401735E-1,1.0416241E-1,-1.739943E-1,-5.618224E-2,-2.0979242E-1,1.1652829E-1,-2.3795974E-1,-2.7211937E-1,-7.225886E-2,-2.6382807E-1,-4.6762653E-2,6.604041E-2,-3.2769018E-1,2.780592E-1,4.8421904E-2,-3.1046292E-1,-9.8446704E-2,4.8534762E-2,-2.1499817E-1,1.28893405E-2,3.8427433E-1,2.238899E-1,-1.1785044E-1,4.07703E-2,-2.599724E-1],"categories":[],"categories_nodes":[],"categories_segments":[],"categories_sizes":[],"default_left":[0,0,0,0,0,0,0,0,0,0,0,0,0,0,0,0,0,0,0,0,0,0,0,0,0,0,0,0,0,0,0,0,0,0,0,0,0,0,0,0,0,0,0,0,0,0,0,0,0,0,0,0,0,0,0,0,0,0,0,0,0,0,0,0,0,0,0,0,0,0,0,0,0,0,0,0,0,0,0,0,0,0,0,0,0,0,0,0,0,0,0,0,0,0,0,0,0,0,0,0,0,0,0,0,0,0,0,0,0,0,0,0,0,0,0,0,0,0,0,0,0],"id":5,"left_children":[1,3,5,7,9,11,13,15,17,19,21,23,25,27,29,31,33,35,37,39,41,43,45,47,49,51,53,55,57,59,61,63,65,67,69,71,73,75,77,-1,79,81,83,85,87,89,91,93,95,97,99,101,103,105,-1,107,109,-1,111,113,115,117,119,-1,-1,-1,-1,-1,-1,-1,-1,-1,-1,-1,-1,-1,-1,-1,-1,-1,-1,-1,-1,-1,-1,-1,-1,-1,-1,-1,-1,-1,-1,-1,-1,-1,-1,-1,-1,-1,-1,-1,-1,-1,-1,-1,-1,-1,-1,-1,-1,-1,-1,-1,-1,-1,-1,-1,-1,-1,-1],"loss_changes":[1.3961723E2,3.7360405E1,2.8191582E1,2.7287292E1,2.3554245E1,1.4129135E1,1.2385396E1,2.252842E1,1.7173794E1,1.2969282E1,2.482149E1,5.743164E0,5.5268097E-1,7.9967203E0,4.2012067E0,2.3618698E1,6.184115E0,5.255865E0,3.4696426E0,8.253738E0,5.6415977E0,1.5568188E1,8.09361E0,2.031662E0,3.5287647E0,1.1514349E0,7.331543E-1,6.491351E0,1.3528564E0,1.0626779E1,2.6832428E0,1.284523E1,7.476483E0,6.05663E0,5.0614476E0,1.2792637E0,3.8110614E0,2.7760296E0,2.4323215E0,0E0,1.0867451E1,4.970904E0,4.935215E0,5.0448294E0,3.2135506E0,3.6697493E0,4.1193337E0,4.7628865E0,9.779091E-1,1.019402E1,2.982645E0,2.9909585E0,2.077694E-1,1.175528E0,0E0,2.3419297E0,3.5717602E0,0E0,6.34017E-2,3.9015417E0,4.07459E0,2.398072E0,1.3858557E0,0E0,0E0,0E0,0E0,0E0,0E0,0E0,0E0,0E0,0E0,0E0,0E0,0E0,0E0,0E0,0E0,0E0,0E0,0E0,0E0,0E0,0E0,0E0,0E0,0E0,0E0,0E0,0E0,0E0,0E0,0E0,0E0,0E0,0E0,0E0,0E0,0E0,0E0,0E0,0E0,0E0,0E0,0E0,0E0,0E0,0E0,0E0,0E0,0E0,0E0,0E0,0E0,0E0,0E0,0E0,0E0,0E0,0E0],"parents":[2147483647,0,0,1,1,2,2,3,3,4,4,5,5,6,6,7,7,8,8,9,9,10,10,11,11,12,12,13,13,14,14,15,15,16,16,17,17,18,18,19,19,20,20,21,21,22,22,23,23,24,24,25,25,26,26,27,27,28,28,29,29,30,30,31,31,32,32,33,33,34,34,35,35,36,36,37,37,38,38,40,40,41,41,42,42,43,43,44,44,45,45,46,46,47,47,48,48,49,49,50,50,51,51,52,52,53,53,55,55,56,56,58,58,59,59,60,60,61,61,62,62],"right_children":[2,4,6,8,10,12,14,16,18,20,22,24,26,28,30,32,34,36,38,40,42,44,46,48,50,52,54,56,58,60,62,64,66,68,70,72,74,76,78,-1,80,82,84,86,88,90,92,94,96,98,100,102,104,106,-1,108,110,-1,112,114,116,118,120,-1,-1,-1,-1,-1,-1,-1,-1,-1,-1,-1,-1,-1,-1,-1,-1,-1,-1,-1,-1,-1,-1,-1,-1,-1,-1,-1,-1,-1,-1,-1,-1,-1,-1,-1,-1,-1,-1,-1,-1,-1,-1,-1,-1,-1,-1,-1,-1,-1,-1,-1,-1,-1,-1,-1,-1,-1,-1],"split_conditions":[1E0,1E0,1.0095E2,3E0,1.1E1,2E0,2E0,1E0,6E0,1E0,9.510459E1,2.323045E3,1E0,7.1E1,2E0,2E0,2E0,1E0,6.085E1,1E0,1E0,2E0,2E0,1E0,2E0,2E0,1E0,4.743348E3,1.0395E2,6.8E1,1E0,2E0,8.285E1,1E0,9.685E1,1E0,2.02E1,1.96E1,1E0,3.4040663E-1,3E0,2E0,8E0,2.64E1,1E0,6.71645E3,1.021E2,1.0716E3,4.3293274E1,1E0,7.8613556E1,1E0,1E0,6.7E1,-3.1206512E-1,3.6292E3,1E0,5.406805E-2,1E0,2E0,1.092E2,1E0,5.5E1,2.1882108E-1,1.1141536E-2,-1.43722E-1,7.1335696E-2,1.1774338E-1,-4.7709353E-2,-1.3161278E-1,7.62295E-2,-3.5541755E-1,-2.826364E-2,-4.7566935E-2,1.3552624E-1,1.9337999E-3,-3.1861424E-1,4.4587143E-3,-2.5283206E-1,6.368895E-2,-9.8385625E-2,1.0509026E-1,-2.3027253E-1,2.6979557E-1,2.9829592E-2,-2.565929E-1,-6.83759E-2,-3.8742915E-1,-1.8492202E-1,1.03770755E-1,3.8668844E-1,3.8334064E-2,-2.8883475E-1,3.4101333E-2,-2.3821361E-1,-4.0687267E-2,-2.5401735E-1,1.0416241E-1,-1.739943E-1,-5.618224E-2,-2.0979242E-1,1.1652829E-1,-2.3795974E-1,-2.7211937E-1,-7.225886E-2,-2.6382807E-1,-4.6762653E-2,6.604041E-2,-3.2769018E-1,2.780592E-1,4.8421904E-2,-3.1046292E-1,-9.8446704E-2,4.8534762E-2,-2.1499817E-1,1.28893405E-2,3.8427433E-1,2.238899E-1,-1.1785044E-1,4.07703E-2,-2.599724E-1],"split_indices":[14,0,17,16,4,14,11,2,4,6,17,18,13,4,14,10,9,5,17,5,15,10,8,8,10,8,11,18,17,4,2,8,17,3,17,15,17,17,2,0,4,9,4,17,9,18,17,18,18,0,17,2,1,4,0,18,0,0,3,10,17,9,4,0,0,0,0,0,0,0,0,0,0,0,0,0,0,0,0,0,0,0,0,0,0,0,0,0,0,0,0,0,0,0,0,0,0,0,0,0,0,0,0,0,0,0,0,0,0,0,0,0,0,0,0,0,0,0,0,0,0],"split_type":[0,0,0,0,0,0,0,0,0,0,0,0,0,0,0,0,0,0,0,0,0,0,0,0,0,0,0,0,0,0,0,0,0,0,0,0,0,0,0,0,0,0,0,0,0,0,0,0,0,0,0,0,0,0,0,0,0,0,0,0,0,0,0,0,0,0,0,0,0,0,0,0,0,0,0,0,0,0,0,0,0,0,0,0,0,0,0,0,0,0,0,0,0,0,0,0,0,0,0,0,0,0,0,0,0,0,0,0,0,0,0,0,0,0,0,0,0,0,0,0,0],"sum_hessian":[1.4485256E3,1.0625505E3,3.8597504E2,6.074443E2,4.5510632E2,2.858037E2,1.0017134E2,5.181761E2,8.926819E1,2.2506815E2,2.300382E2,1.690793E2,1.16724396E2,3.9285385E1,6.0885956E1,3.7833386E2,1.3984222E2,5.3405014E1,3.5863174E1,1.55594E2,6.9474144E1,1.6630983E2,6.372836E1,7.383082E1,9.524849E1,2.453802E1,9.218638E1,3.3931633E1,5.3537526E0,3.303002E1,2.7855934E1,3.156193E2,6.271455E1,9.38004E1,4.6041817E1,4.0586696E0,4.9346344E1,2.2114977E1,1.3748197E1,5.4686837E0,1.5012532E2,2.198478E1,4.7489365E1,1.2987543E2,3.6434406E1,5.1274075E1,1.2454282E1,2.2438164E1,5.1392654E1,4.549944E1,4.974905E1,7.029921E0,1.7508097E1,9.823555E0,8.236282E1,4.0237045E0,2.9907928E1,1.1079214E0,4.245831E0,2.3144903E1,9.885118E0,7.2928553E0,2.0563078E1,2.859317E2,2.9687601E1,2.10878E1,4.162675E1,6.614416E1,2.7656242E1,3.11399E1,1.4901914E1,2.1365163E0,1.9221534E0,1.3588806E1,3.5757538E1,2.7475197E0,1.9367458E1,9.777167E0,3.9710293E0,8.6067184E1,6.405813E1,1.793111E1,4.053669E0,3.7508106E1,9.98126E0,1.3676962E1,1.1619846E2,2.1378595E1,1.5055809E1,4.7509563E1,3.7645102E0,6.395242E0,6.05904E0,9.491774E0,1.2946389E1,2.4490788E0,4.8943573E1,2.2641962E1,2.285748E1,1.932343E1,3.0425623E1,2.8552547E0,4.174666E0,1.6130362E1,1.3777368E0,5.6626434E0,4.1609116E0,1.9194375E0,2.1042671E0,2.0763903E1,9.144026E0,2.7855089E0,1.4603223E0,6.6638474E0,1.6481056E1,4.938999E0,4.9461184E0,1.5571398E0,5.7357154E0,1.2102647E0,1.9352814E1],"tree_param":{"num_deleted":"0","num_feature":"19","num_nodes":"121","size_leaf_vector":"1"}},{"base_weights":[-1.089828E-2,1.3327776E-1,-4.338518E-1,1.9559354E-1,-3.034206E-1,-2.4227142E-1,-7.569521E-1,4.16989E-2,3.7294146E-1,-7.623496E-2,-4.8569506E-1,-4.676804E-1,7.951633E-2,-8.704598E-1,-2.9408425E-1,2.7059838E-1,-1.3366957E-1,3.006094E-1,3.7543908E-1,-2.4744919E-1,3.049716E-1,-7.287418E-1,-9.42829E-2,-6.130537E-1,-2.75832E-1,4.603227E-1,-1.8336512E-1,-6.446491E-1,-9.214684E-1,3.0402604E-2,-2.8320327E-1,8.59769E-2,4.6694767E-1,2.9195353E-1,-2.8063688E-1,6.285419E-1,1.3697203E-1,2.07792E-2,-6.8454134E-1,8.167203E-1,-5.6039398E-3,-1.1201584E0,-5.9785277E-1,2.565918E-1,-2.0988837E-1,-6.383372E-1,1.4117025E-1,2.9528618E-1,-3.3614007E-1,9.732945E-1,2.3806619E-2,5.781015E-2,-5.3771096E-1,-8.508054E-1,-3.6086878E-1,-5.692886E-1,-2.92827E-1,5.5334264E-1,-3.3285505E-1,5.287201E-2,-2.739298E-1,2.9597422E-1,9.065431E-2,3.7465507E-1,-1.6417757E-3,-1.1902348E-1,7.869919E-3,2.214955E-1,2.8552096E-2,7.8557625E-2,-6.3236184E-2,-1.9254738E-2,2.546523E-1,-3.0863833E-1,-8.523076E-2,1.1448995E-1,3.5459638E-1,-2.987308E-1,1.3764891E-1,-7.525643E-2,-3.8218415E-1,-6.1426617E-2,-2.387498E-1,-9.137575E-2,2.2660404E-1,-1.5414736E-1,-2.5961047E-1,-1.3321175E-1,3.0420035E-1,-2.2661489E-1,-6.0438182E-2,3.334627E-1,-6.933273E-2,9.0861395E-2,-1.5693009E-1,-3.9158054E-2,4.195464E-1,-2.4434999E-1,1.8556689E-1,-1.4700924E-1,-2.916558E-1,2.8408927E-1,-2.4185078E-1,-2.4134587E-1,-3.305365E-2,2.7904612E-1,4.228993E-2,1.4682683E-1,-1.827457E-1],"categories":[],"categories_nodes":[],"categories_segments":[],"categories_sizes":[],"default_left":[0,0,0,0,0,0,0,0,0,0,0,0,0,0,0,0,0,0,0,0,0,0,0,0,0,0,0,0,0,0,0,0,0,0,0,0,0,0,0,0,0,0,0,0,0,0,0,0,0,0,0,0,0,0,0,0,0,0,0,0,0,0,0,0,0,0,0,0,0,0,0,0,0,0,0,0,0,0,0,0,0,0,0,0,0,0,0,0,0,0,0,0,0,0,0,0,0,0,0,0,0,0,0,0,0,0,0,0,0],"id":6,"left_children":[1,3,5,7,9,11,13,15,17,19,21,23,25,27,29,31,33,35,-1,37,39,41,43,45,47,49,51,53,55,57,-1,59,61,63,65,67,69,71,73,75,77,79,81,-1,83,85,-1,87,89,91,93,95,97,99,101,103,-1,105,107,-1,-1,-1,-1,-1,-1,-1,-1,-1,-1,-1,-1,-1,-1,-1,-1,-1,-1,-1,-1,-1,-1,-1,-1,-1,-1,-1,-1,-1,-1,-1,-1,-1,-1,-1,-1,-1,-1,-1,-1,-1,-1,-1,-1,-1,-1,-1,-1,-1,-1],"loss_changes":[8.283552E1,2.762991E1,2.1192421E1,2.4199314E1,5.218318E0,1.5868272E1,6.4727936E0,1.9149525E1,2.5809284E1,3.8401904E0,6.61224E0,3.4145908E0,9.170368E0,5.8475494E-1,5.6662583E0,7.4592943E0,1.6987862E1,2.0415222E1,0E0,4.745555E0,2.9171338E0,1.5423641E0,3.2589557E0,2.2808037E0,2.0697837E0,8.340751E0,4.6809635E0,9.909582E-1,1.0054321E0,3.7552342E0,0E0,9.886784E0,8.266243E0,1.9889359E1,7.186558E0,7.359844E0,1.1179739E1,1.8822148E0,1.8273988E0,6.4992E-1,6.158017E0,9.7392845E-1,2.5221453E0,0E0,2.5892491E0,1.5641079E0,0E0,3.6366549E0,2.7960305E0,3.1119938E0,3.3947947E0,8.585226E0,7.587075E0,5.4099083E-2,7.2116776E0,1.3470821E0,0E0,1.12462E0,2.9602559E0,0E0,0E0,0E0,0E0,0E0,0E0,0E0,0E0,0E0,0E0,0E0,0E0,0E0,0E0,0E0,0E0,0E0,0E0,0E0,0E0,0E0,0E0,0E0,0E0,0E0,0E0,0E0,0E0,0E0,0E0,0E0,0E0,0E0,0E0,0E0,0E0,0E0,0E0,0E0,0E0,0E0,0E0,0E0,0E0,0E0,0E0,0E0,0E0,0E0,0E0],"parents":[2147483647,0,0,1,1,2,2,3,3,4,4,5,5,6,6,7,7,8,8,9,9,10,10,11,11,12,12,13,13,14,14,15,15,16,16,17,17,19,19,20,20,21,21,22,22,23,23,24,24,25,25,26,26,27,27,28,28,29,29,31,31,32,32,33,33,34,34,35,35,36,36,37,37,38,38,39,39,40,40,41,41,42,42,44,44,45,45,47,47,48,48,49,49,50,50,51,51,52,52,53,53,54,54,55,55,57,57,58,58],"right_children":[2,4,6,8,10,12,14,16,18,20,22,24,26,28,30,32,34,36,-1,38,40,42,44,46,48,50,52,54,56,58,-1,60,62,64,66,68,70,72,74,76,78,80,82,-1,84,86,-1,88,90,92,94,96,98,100,102,104,-1,106,108,-1,-1,-1,-1,-1,-1,-1,-1,-1,-1,-1,-1,-1,-1,-1,-1,-1,-1,-1,-1,-1,-1,-1,-1,-1,-1,-1,-1,-1,-1,-1,-1,-1,-1,-1,-1,-1,-1,-1,-1,-1,-1,-1,-1,-1,-1,-1,-1,-1,-1],"split_conditions":[1E0,2E0,2E0,7.57E1,1.7E1,4.743348E3,1.0595E2,4E0,1E0,8.325E1,9.745E1,2E0,1E0,1E0,7.85415E3,5.7588615E1,1E0,1.1E1,3.7543908E-1,6.237849E1,6E0,1E0,2E0,9.5E1,1.17795E3,2E0,2E0,4.44345E3,1E0,1E0,-2.8320327E-1,2E0,6.995E1,1E0,7.075E1,2E0,1E0,8.0695E2,7.075E1,1E0,9.142274E2,5.475E1,1E0,2.565918E-1,1.118E2,3E0,1.4117025E-1,1E0,2.323045E3,1E0,2E0,1E0,7.5815E3,1E0,4.78615E3,2E0,-2.92827E-1,2E0,1E0,5.287201E-2,-2.739298E-1,2.9597422E-1,9.065431E-2,3.7465507E-1,-1.6417757E-3,-1.1902348E-1,7.869919E-3,2.214955E-1,2.8552096E-2,7.8557625E-2,-6.3236184E-2,-1.9254738E-2,2.546523E-1,-3.0863833E-1,-8.523076E-2,1.1448995E-1,3.5459638E-1,-2.987308E-1,1.3764891E-1,-7.525643E-2,-3.8218415E-1,-6.1426617E-2,-2.387498E-1,-9.137575E-2,2.2660404E-1,-1.5414736E-1,-2.5961047E-1,-1.3321175E-1,3.0420035E-1,-2.2661489E-1,-6.0438182E-2,3.334627E-1,-6.933273E-2,9.0861395E-2,-1.5693009E-1,-3.9158054E-2,4.195464E-1,-2.4434999E-1,1.8556689E-1,-1.4700924E-1,-2.916558E-1,2.8408927E-1,-2.4185078E-1,-2.4134587E-1,-3.305365E-2,2.7904612E-1,4.228993E-2,1.4682683E-1,-1.827457E-1],"split_indices":[14,11,14,17,4,18,17,4,11,17,17,13,2,13,18,18,5,4,0,17,4,16,12,17,18,9,11,18,11,16,0,4,18,6,17,9,1,18,17,2,18,17,15,0,17,16,0,6,18,1,16,11,18,6,18,16,0,8,9,0,0,0,0,0,0,0,0,0,0,0,0,0,0,0,0,0,0,0,0,0,0,0,0,0,0,0,0,0,0,0,0,0,0,0,0,0,0,0,0,0,0,0,0,0,0,0,0,0,0],"split_type":[0,0,0,0,0,0,0,0,0,0,0,0,0,0,0,0,0,0,0,0,0,0,0,0,0,0,0,0,0,0,0,0,0,0,0,0,0,0,0,0,0,0,0,0,0,0,0,0,0,0,0,0,0,0,0,0,0,0,0,0,0,0,0,0,0,0,0,0,0,0,0,0,0,0,0,0,0,0,0,0,0,0,0,0,0,0,0,0,0,0,0,0,0,0,0,0,0,0,0,0,0,0,0,0,0,0,0,0,0],"sum_hessian":[1.3564618E3,1.012132E3,3.4432983E2,8.8622235E2,1.2590964E2,2.172579E2,1.2707192E2,4.7514648E2,4.1107587E2,5.6681034E1,6.92286E1,1.2749535E2,8.976255E1,1.01340034E2,2.5731884E1,2.058795E2,2.69267E2,3.8104517E2,3.0030712E1,3.935576E1,1.7325275E1,4.2177017E1,2.705158E1,7.128419E1,5.6211166E1,3.63522E1,5.341035E1,2.1186632E1,8.0153404E1,1.7798769E1,7.9331145E0,1.0684972E2,9.9029785E1,6.88598E1,2.004072E2,1.2589935E2,2.551458E2,2.497929E1,1.4376469E1,5.9279075E0,1.13973675E1,8.675462E0,3.3501556E1,2.2414787E0,2.4810102E1,7.006043E1,1.2237595E0,4.9966393E0,5.1214527E1,1.614717E1,2.0205029E1,3.227807E1,2.1132282E1,1.1114343E1,1.00722885E1,1.2295973E1,6.785743E1,7.0813255E0,1.0717444E1,9.875146E1,8.098259E0,2.2640265E1,7.638952E1,1.556958E1,5.3290222E1,1.4518268E2,5.522452E1,1.04091324E2,2.1808033E1,1.8791066E2,6.723513E1,2.3491484E1,1.487807E0,6.886796E0,7.489673E0,3.638603E0,2.2893045E0,3.2737446E0,8.123623E0,1.6995845E0,6.9758773E0,1.1902624E1,2.1598932E1,2.321679E1,1.5933132E0,4.735327E1,2.2707157E1,2.651391E0,2.345248E0,1.1331626E1,3.98829E1,1.4553719E1,1.5934505E0,1.3673963E1,6.531066E0,2.9093662E1,3.1844058E0,1.7289156E1,3.843126E0,4.0660696E0,7.048273E0,2.272235E0,7.800054E0,7.6332545E0,4.662719E0,3.044135E0,4.0371904E0,2.5014904E0,8.215954E0],"tree_param":{"num_deleted":"0","num_feature":"19","num_nodes":"109","size_leaf_vector":"1"}},{"base_weights":[-8.65835E-3,5.188192E-2,-6.7158735E-1,1.1638523E-1,-2.7071953E-1,-8.481409E-1,-3.5610718E-1,1.8007118E-1,-2.0472611E-1,-1.2809893E-1,-4.8648044E-1,-5.6370205E-1,-2.7197063E-1,-1.9879046E-1,-8.654774E-1,3.2013915E-2,3.3571544E-1,-1.4036036E-1,-5.477282E-1,-1.9280759E-1,4.3808335E-1,-8.8357455E-1,-3.908925E-1,-2.5399753E-1,-8.465205E-2,-7.487546E-2,-2.8525883E-1,-9.333032E-2,-2.836006E-1,4.2194772E-1,-7.293399E-2,2.8256506E-1,3.453891E-1,-8.754419E-3,-3.296366E-1,-2.0131208E-1,-8.072523E-1,6.880684E-2,-3.2298726E-1,-5.709429E-1,1.0201124E0,-4.1515607E-2,-9.314059E-1,-1.1308864E-2,-5.771502E-1,2.8377482E-1,-6.90209E-1,-2.6599437E-1,3.0737845E-2,3.7322506E-1,5.8696855E-2,4.1688096E-2,-1.05988145E-1,1.2876211E-1,1.9291086E-3,-3.0483184E-2,3.9996052E-1,-1.2461649E-1,1.5915842E-1,-1.2343485E-1,2.9822326E-1,-2.8377244E-1,4.5367274E-2,-4.1192982E-2,1.554966E-1,-1.422394E-1,-1.6438805E-2,-3.1647176E-1,9.265592E-2,4.3185227E-2,3.4338778E-1,-3.0241036E-1,-1.2611672E-1,1.1096671E-1,-1.3749567E-1,-3.1797865E-1,-1.198008E-1,-3.8199008E-2,-2.4449599E-1,2.3971884E-1,-2.508415E-2],"categories":[],"categories_nodes":[],"categories_segments":[],"categories_sizes":[],"default_left":[0,0,0,0,0,0,0,0,0,0,0,0,0,0,0,0,0,0,0,0,0,0,0,0,0,0,0,0,0,0,0,0,0,0,0,0,0,0,0,0,0,0,0,0,0,0,0,0,0,0,0,0,0,0,0,0,0,0,0,0,0,0,0,0,0,0,0,0,0,0,0,0,0,0,0,0,0,0,0,0,0],"id":7,"left_children":[1,3,5,7,9,11,13,15,17,19,21,23,-1,25,27,29,31,33,35,37,39,41,43,-1,45,47,-1,-1,-1,49,51,53,-1,55,57,59,61,63,65,67,69,-1,71,73,75,-1,77,-1,79,-1,-1,-1,-1,-1,-1,-1,-1,-1,-1,-1,-1,-1,-1,-1,-1,-1,-1,-1,-1,-1,-1,-1,-1,-1,-1,-1,-1,-1,-1,-1,-1],"loss_changes":[5.1392555E1,2.4450808E1,5.6663704E0,2.0050797E1,5.964121E0,6.187515E-1,3.047133E0,1.8821518E1,3.5094433E0,4.4538765E0,2.5993252E0,1.8570333E0,0E0,2.9102201E0,1.12379074E-1,1.7215206E1,1.6940266E1,3.437663E0,2.1140137E0,3.6909862E0,7.9457912E0,3.7931824E-1,4.5410013E0,0E0,4.643571E0,2.4751153E0,0E0,0E0,0E0,1.6351423E1,1.9755745E1,1.5192381E1,0E0,1.0415574E1,4.3967633E0,3.4679775E0,2.0227985E0,3.463881E0,2.8969145E0,2.5517197E0,7.4183464E-1,0E0,9.405327E-2,3.951119E0,3.2791004E0,0E0,2.1973014E-1,0E0,2.3714762E0,0E0,0E0,0E0,0E0,0E0,0E0,0E0,0E0,0E0,0E0,0E0,0E0,0E0,0E0,0E0,0E0,0E0,0E0,0E0,0E0,0E0,0E0,0E0,0E0,0E0,0E0,0E0,0E0,0E0,0E0,0E0,0E0],"parents":[2147483647,0,0,1,1,2,2,3,3,4,4,5,5,6,6,7,7,8,8,9,9,10,10,11,11,13,13,14,14,15,15,16,16,17,17,18,18,19,19,20,20,21,21,22,22,24,24,25,25,29,29,30,30,31,31,33,33,34,34,35,35,36,36,37,37,38,38,39,39,40,40,42,42,43,43,44,44,46,46,48,48],"right_children":[2,4,6,8,10,12,14,16,18,20,22,24,-1,26,28,30,32,34,36,38,40,42,44,-1,46,48,-1,-1,-1,50,52,54,-1,56,58,60,62,64,66,68,70,-1,72,74,76,-1,78,-1,80,-1,-1,-1,-1,-1,-1,-1,-1,-1,-1,-1,-1,-1,-1,-1,-1,-1,-1,-1,-1,-1,-1,-1,-1,-1,-1,-1,-1,-1,-1,-1,-1],"split_conditions":[2E0,1E0,9.3405525E1,2E0,3.2E1,1E0,7.2E1,7.57E1,3E0,1.99325E3,5.155E1,4.743348E3,-2.7197063E-1,1E0,1.0359889E2,1E0,1E0,2E0,1.5E1,5E0,1E0,1.9441988E1,3.4815042E3,-2.5399753E-1,7.973341E1,4.5127E3,-2.8525883E-1,-9.333032E-2,-2.836006E-1,1E0,7E0,2E0,3.453891E-1,1E0,7.4675E3,1.2E1,1E0,1.411E2,1.0461E3,9.300262E1,2.4E1,-4.1515607E-2,2E0,2E0,2E0,2.8377482E-1,1E0,-2.6599437E-1,9.655E1,3.7322506E-1,5.8696855E-2,4.1688096E-2,-1.05988145E-1,1.2876211E-1,1.9291086E-3,-3.0483184E-2,3.9996052E-1,-1.2461649E-1,1.5915842E-1,-1.2343485E-1,2.9822326E-1,-2.8377244E-1,4.5367274E-2,-4.1192982E-2,1.554966E-1,-1.422394E-1,-1.6438805E-2,-3.1647176E-1,9.265592E-2,4.3185227E-2,3.4338778E-1,-3.0241036E-1,-1.2611672E-1,1.1096671E-1,-1.3749567E-1,-3.1797865E-1,-1.198008E-1,-3.8199008E-2,-2.4449599E-1,2.3971884E-1,-2.508415E-2],"split_indices":[14,3,17,8,4,9,4,17,16,18,17,18,0,1,17,5,8,10,4,4,15,17,18,0,17,18,0,0,0,6,4,10,0,10,18,4,1,18,18,17,4,0,10,6,6,0,2,0,17,0,0,0,0,0,0,0,0,0,0,0,0,0,0,0,0,0,0,0,0,0,0,0,0,0,0,0,0,0,0,0,0],"split_type":[0,0,0,0,0,0,0,0,0,0,0,0,0,0,0,0,0,0,0,0,0,0,0,0,0,0,0,0,0,0,0,0,0,0,0,0,0,0,0,0,0,0,0,0,0,0,0,0,0,0,0,0,0,0,0,0,0,0,0,0,0,0,0,0,0,0,0,0,0,0,0,0,0,0,0,0,0,0,0,0,0],"sum_hessian":[1.278659E3,1.1725049E3,1.0615423E2,9.7766296E2,1.9484189E2,6.6980965E1,3.9173264E1,8.162212E2,1.6144176E2,1.1826257E2,7.657931E1,1.3228702E1,5.3752262E1,3.099184E1,8.181424E0,4.1892386E2,3.9729736E2,1.3711984E2,2.4321901E1,1.0672455E2,1.153803E1,1.3258189E1,6.332112E1,7.834057E0,5.394645E0,2.7551828E1,3.440011E0,1.6465695E0,6.534855E0,8.819923E1,3.3072464E2,3.7425415E2,2.3043198E1,8.1498955E1,5.5620895E1,1.1177598E1,1.3144304E1,3.5617535E1,7.110701E1,4.2277317E0,7.3102984E0,1.034492E0,1.2223697E1,2.1192535E1,4.2128586E1,1.7886196E0,3.6060252E0,2.3205125E0,2.5231316E1,1.8066053E1,7.013317E1,1.8864911E2,1.4207553E2,2.4408038E2,1.3017377E2,7.708908E1,4.4098706E0,5.1048813E1,4.572083E0,1.0064214E1,1.1133841E0,1.1494579E1,1.649725E0,2.4896326E1,1.0721208E1,4.4986286E1,2.6120728E1,2.5990162E0,1.6287154E0,1.1779006E0,6.132398E0,9.783956E0,2.4397414E0,1.15314E1,9.661136E0,1.000457E1,3.2124012E1,1.020944E0,2.5850813E0,2.4930217E0,2.2738295E1],"tree_param":{"num_deleted":"0","num_feature":"19","num_nodes":"81","size_leaf_vector":"1"}},{"base_weights":[-7.6355375E-3,3.9347876E-2,-5.8886576E-1,1.2118058E-1,-1.7175633E-1,-7.275623E-1,-1.4218827E-1,2.0187013E-1,-2.0065995E-1,-2.6152357E-1,-1.3567255E-2,-4.7700378E-1,-7.907703E-1,1.0909865E-1,-8.066627E-1,3.3700833E-1,1.9155825E-2,9.6987635E-2,-3.782524E-1,-1.6025524E-1,-5.703551E-1,5.1774305E-1,-7.125068E-2,-5.921347E-2,-6.553351E-1,-4.1182837E-1,-8.660136E-1,-2.576123E-1,2.6713625E-1,-2.7530065E-1,-6.097709E-2,4.039119E-1,-7.73419E-2,-2.2270048E-1,1.98651E-1,1.5447428E-2,6.2413865E-1,-4.7270826E-1,7.069929E-2,-2.7645764E-1,1.7656249E-1,-1.1504982E0,-4.693018E-1,3.1083876E-1,-1.392416E-2,-9.0806794E-1,-2.4064692E-2,4.5022252E-1,-5.3713226E-1,-3.2135004E-1,-7.4031335E-1,-6.4714473E-1,1.4452167E-1,-6.9481117E-1,-2.9436657E-1,4.319272E-1,-2.2072652E-1,1.4944103E-1,3.9282843E-2,-5.4660175E-2,3.5732403E-1,-1.0150877E-1,1.3571222E-1,1.3404244E-1,2.009627E-2,1.986739E-2,-2.4579094E-1,1.034595E-1,2.8349212E-1,-9.34799E-2,-2.6666299E-1,-3.2578242E-1,8.551492E-2,4.2242836E-2,-1.05832346E-1,3.0701903E-1,-5.8743046E-3,-4.275689E-1,3.9418614E-3,-1.9051082E-2,-1.8191668E-1,-1.597403E-1,2.1842597E-1,-3.6294585E-1,1.8855963E-3,6.066113E-3,-2.1945243E-1,2.520534E-1,-6.0904246E-2,-1.989733E-1,-3.1901702E-2,1.0560534E-1,-2.1214509E-1,-2.4247998E-1,-6.726554E-2,-2.701576E-1,-5.5781644E-2,2.2721265E-1,-1.8799327E-1,-2.588969E-1,-6.1106212E-2,3.5532516E-1,1.5993569E-2],"categories":[],"categories_nodes":[],"categories_segments":[],"categories_sizes":[],"default_left":[0,0,0,0,0,0,0,0,0,0,0,0,0,0,0,0,0,0,0,0,0,0,0,0,0,0,0,0,0,0,0,0,0,0,0,0,0,0,0,0,0,0,0,0,0,0,0,0,0,0,0,0,0,0,0,0,0,0,0,0,0,0,0,0,0,0,0,0,0,0,0,0,0,0,0,0,0,0,0,0,0,0,0,0,0,0,0,0,0,0,0,0,0,0,0,0,0,0,0,0,0,0,0],"id":8,"left_children":[1,3,5,7,9,11,13,15,17,19,21,23,25,27,29,31,33,35,37,39,41,43,45,47,49,51,53,-1,55,-1,-1,57,59,61,63,65,67,69,71,73,75,77,79,-1,81,83,85,87,89,91,93,95,97,99,-1,101,-1,-1,-1,-1,-1,-1,-1,-1,-1,-1,-1,-1,-1,-1,-1,-1,-1,-1,-1,-1,-1,-1,-1,-1,-1,-1,-1,-1,-1,-1,-1,-1,-1,-1,-1,-1,-1,-1,-1,-1,-1,-1,-1,-1,-1,-1,-1],"loss_changes":[3.3431274E1,1.9590467E1,5.568777E0,2.1255947E1,4.4960527E0,7.2541046E-1,3.9177485E0,1.6134098E1,8.719644E0,6.229204E0,3.5849931E0,1.1939099E0,1.1852036E0,2.9095795E0,2.430234E-1,1.04463005E1,1.21553545E1,2.6630833E0,4.40481E0,6.0599394E0,2.3628826E0,3.1726267E0,4.1364737E0,1.7145548E0,8.8386536E-2,1.5159924E0,1.9024277E-1,0E0,2.9333563E0,0E0,0E0,8.258789E0,7.2754993E0,9.469383E0,5.219471E0,2.380221E0,4.1817307E-1,5.441967E0,4.9676113E0,3.698369E0,6.6649895E0,2.146696E0,2.4013119E0,0E0,2.9439714E0,1.5510416E0,3.1701794E0,1.0549839E0,1.238029E-1,1.3137475E0,1.1327839E-1,7.462008E-1,2.387297E0,1.5760536E0,0E0,3.9890046E0,0E0,0E0,0E0,0E0,0E0,0E0,0E0,0E0,0E0,0E0,0E0,0E0,0E0,0E0,0E0,0E0,0E0,0E0,0E0,0E0,0E0,0E0,0E0,0E0,0E0,0E0,0E0,0E0,0E0,0E0,0E0,0E0,0E0,0E0,0E0,0E0,0E0,0E0,0E0,0E0,0E0,0E0,0E0,0E0,0E0,0E0,0E0],"parents":[2147483647,0,0,1,1,2,2,3,3,4,4,5,5,6,6,7,7,8,8,9,9,10,10,11,11,12,12,13,13,14,14,15,15,16,16,17,17,18,18,19,19,20,20,21,21,22,22,23,23,24,24,25,25,26,26,28,28,31,31,32,32,33,33,34,34,35,35,36,36,37,37,38,38,39,39,40,40,41,41,42,42,44,44,45,45,46,46,47,47,48,48,49,49,50,50,51,51,52,52,53,53,55,55],"right_children":[2,4,6,8,10,12,14,16,18,20,22,24,26,28,30,32,34,36,38,40,42,44,46,48,50,52,54,-1,56,-1,-1,58,60,62,64,66,68,70,72,74,76,78,80,-1,82,84,86,88,90,92,94,96,98,100,-1,102,-1,-1,-1,-1,-1,-1,-1,-1,-1,-1,-1,-1,-1,-1,-1,-1,-1,-1,-1,-1,-1,-1,-1,-1,-1,-1,-1,-1,-1,-1,-1,-1,-1,-1,-1,-1,-1,-1,-1,-1,-1,-1,-1,-1,-1,-1,-1],"split_conditions":[2E0,2E0,1.0595E2,3E0,9.615E1,1E0,7.85415E3,1E0,2E0,3.3769714E3,1.5532E3,2E0,1E0,5.2329E3,2E0,2E0,2E0,6.39E1,2E0,2.2542E3,4.4E1,1E0,2.27765E3,1E0,1E0,7E1,6E1,-2.576123E-1,1E0,-2.7530065E-1,-6.097709E-2,1E0,1E0,9.615E1,2.4471423E2,2E0,7.138959E1,1.8E1,5E0,1.3435347E2,2.3984E3,1E0,5.2E1,3.1083876E-1,1E1,1E0,7.1E1,1E0,8.49E1,1E0,6.51125E3,2E0,1E0,5.2E1,-2.9436657E-1,1E0,-2.2072652E-1,1.4944103E-1,3.9282843E-2,-5.4660175E-2,3.5732403E-1,-1.0150877E-1,1.3571222E-1,1.3404244E-1,2.009627E-2,1.986739E-2,-2.4579094E-1,1.034595E-1,2.8349212E-1,-9.34799E-2,-2.6666299E-1,-3.2578242E-1,8.551492E-2,4.2242836E-2,-1.05832346E-1,3.0701903E-1,-5.8743046E-3,-4.275689E-1,3.9418614E-3,-1.9051082E-2,-1.8191668E-1,-1.597403E-1,2.1842597E-1,-3.6294585E-1,1.8855963E-3,6.066113E-3,-2.1945243E-1,2.520534E-1,-6.0904246E-2,-1.989733E-1,-3.1901702E-2,1.0560534E-1,-2.1214509E-1,-2.4247998E-1,-6.726554E-2,-2.701576E-1,-5.5781644E-2,2.2721265E-1,-1.8799327E-1,-2.588969E-1,-6.1106212E-2,3.5532516E-1,1.5993569E-2],"split_indices":[14,9,17,16,17,13,18,0,4,18,18,8,11,18,16,8,16,17,13,18,4,0,18,0,6,4,4,0,1,0,0,2,9,17,18,8,17,4,4,18,18,3,4,0,4,3,4,12,17,10,18,16,8,4,0,2,0,0,0,0,0,0,0,0,0,0,0,0,0,0,0,0,0,0,0,0,0,0,0,0,0,0,0,0,0,0,0,0,0,0,0,0,0,0,0,0,0,0,0,0,0,0,0],"split_type":[0,0,0,0,0,0,0,0,0,0,0,0,0,0,0,0,0,0,0,0,0,0,0,0,0,0,0,0,0,0,0,0,0,0,0,0,0,0,0,0,0,0,0,0,0,0,0,0,0,0,0,0,0,0,0,0,0,0,0,0,0,0,0,0,0,0,0,0,0,0,0,0,0,0,0,0,0,0,0,0,0,0,0,0,0,0,0,0,0,0,0,0,0,0,0,0,0,0,0,0,0,0,0],"sum_hessian":[1.2223735E3,1.1318162E3,9.05574E1,8.1594727E2,3.1586887E2,6.86212E1,2.1936201E1,6.526838E2,1.6326344E2,2.010986E2,1.1477027E2,1.554538E1,5.307582E1,1.6523321E1,5.4128785E0,3.7470328E2,2.7798053E2,6.1179523E1,1.0208392E2,1.5258398E2,4.8514603E1,1.0458995E1,1.0431128E2,5.048924E0,1.0496456E1,9.865297E0,4.3210526E1,1.6970702E0,1.4826252E1,4.1319284E0,1.28095E0,3.2263397E2,5.2069286E1,1.183168E2,1.5966373E2,5.387534E1,7.304184E0,8.429583E1,1.7788092E1,1.1357852E2,3.900547E1,5.656399E0,4.2858204E1,4.815225E0,5.6437693E0,4.594042E0,9.971723E1,2.47193E0,2.5769937E0,3.0988362E0,7.3976197E0,6.81823E0,3.0470667E0,2.0209545E1,2.3000978E1,1.3222846E1,1.6034056E0,2.3923033E2,8.3403656E1,4.8884434E1,3.184852E0,1.0143627E2,1.688053E1,5.451714E1,1.0514658E2,5.165394E1,2.2214024E0,5.014322E0,2.289862E0,6.2030926E1,2.2264902E1,2.1453779E0,1.5642714E1,1.7430593E1,9.614793E1,6.542246E0,3.2463226E1,4.3941483E0,1.2622505E0,1.1191865E1,3.166634E1,3.4883707E0,2.1553988E0,3.2111633E0,1.3828787E0,9.475699E1,4.9602504E0,1.368697E0,1.103233E0,1.5760322E0,1.0009617E0,1.1606413E0,1.9381949E0,6.036664E0,1.3609561E0,3.7858098E0,3.0324206E0,1.7077678E0,1.339299E0,1.4490354E1,5.7191916E0,3.7136865E0,9.50916E0],"tree_param":{"num_deleted":"0","num_feature":"19","num_nodes":"103","size_leaf_vector":"1"}},{"base_weights":[-7.987458E-3,6.0722813E-2,-2.8489554E-1,-2.480195E-1,1.2542844E-1,-1.8337752E-1,-5.045517E-1,-9.061532E-2,-6.189932E-1,5.620506E-2,3.959957E-1,-2.8040004E-1,8.511592E-2,-7.8821343E-1,-1.1653156E-1,-4.3412816E-2,-5.6411123E-1,-9.0989274E-1,-4.2881313E-1,1.4529377E-1,-1.756712E-1,-1.5807985E-1,-4.828463E-1,-2.8255227E-1,1.4337064E-1,-8.1871504E-1,-1.4426215E-1,3.3524874E-1,-3.7738863E-1,-7.736255E-2,8.054231E-1,-1.370606E-1,-8.186038E-1,-4.1498458E-1,-3.303237E-1,7.8329617E-1,-6.575651E-1,5.4314975E-2,3.7558004E-1,6.685807E-1,-2.2772552E-1,2.939975E-1,-2.129135E-1,-6.2826765E-1,-1.5289913E-1,6.203678E-1,1.7438313E-2,-5.9525096E-1,-9.2105544E-1,1.5853381E-1,-2.2977512E-1,9.2576396E-1,1.949889E-2,-8.129572E-1,-3.9631955E-2,-3.4063138E-2,1.7619841E-1,3.9889318E-1,-7.09564E-2,1.3717425E-1,-2.1252985E-1,-5.2748866E-2,-2.727898E-1,-2.3561896E-1,1.3406806E-1,3.9923593E-1,-2.0402443E-1,-3.2581377E-1,-1.3869628E-1,4.326467E-2,-5.92294E-2,2.4306308E-1,-5.129392E-3,-1.2712425E-1,1.079344E-2,-2.2774838E-1,2.4709256E-1,-1.3144224E-2,-1.2015037E-1,-9.883629E-2,-3.1580412E-1,1.0592775E-1,-1.4055488E-1,3.6586595E-1,3.474435E-2,-1.0557529E-1,8.4941395E-2,-2.76134E-1,-4.3672808E-2,-1.8956293E-1,-3.129088E-1,3.2535768E-1,8.765025E-2,3.3053413E-1,-1.1710679E-1,1.50238145E-2,-3.1307918E-1,1.504414E-1,-1.0692929E-1],"categories":[],"categories_nodes":[],"categories_segments":[],"categories_sizes":[],"default_left":[0,0,0,0,0,0,0,0,0,0,0,0,0,0,0,0,0,0,0,0,0,0,0,0,0,0,0,0,0,0,0,0,0,0,0,0,0,0,0,0,0,0,0,0,0,0,0,0,0,0,0,0,0,0,0,0,0,0,0,0,0,0,0,0,0,0,0,0,0,0,0,0,0,0,0,0,0,0,0,0,0,0,0,0,0,0,0,0,0,0,0,0,0,0,0,0,0,0,0],"id":9,"left_children":[1,3,5,7,9,11,13,15,17,19,-1,21,23,25,27,29,31,33,35,37,39,41,43,-1,45,47,49,51,53,55,57,59,61,63,-1,65,67,69,-1,71,73,75,77,79,81,83,85,87,89,-1,-1,91,93,95,97,-1,-1,-1,-1,-1,-1,-1,-1,-1,-1,-1,-1,-1,-1,-1,-1,-1,-1,-1,-1,-1,-1,-1,-1,-1,-1,-1,-1,-1,-1,-1,-1,-1,-1,-1,-1,-1,-1,-1,-1,-1,-1,-1,-1],"loss_changes":[2.2396133E1,1.887354E1,5.1256447E0,9.506199E0,6.446066E1,4.2338705E0,7.986511E0,2.5713918E0,2.2992077E0,1.528583E1,0E0,2.869196E0,2.7473352E0,7.112713E-1,3.9176943E0,3.1371732E0,1.0230324E0,1.2770643E0,9.189858E0,5.371866E1,9.183255E0,1.9374834E0,2.0301676E0,0E0,2.5234823E0,3.6885452E-1,1.7109796E0,2.2762842E0,3.0372798E0,2.5560155E0,2.6036854E0,2.056259E0,2.0995235E-1,2.493647E0,0E0,5.2501726E0,1.7451944E0,1.1224403E1,0E0,1.1975226E0,1.0059416E1,5.4231787E0,2.1405005E0,3.513074E0,2.5414011E0,2.5140736E0,3.476214E0,2.1214633E0,2.4667549E-1,0E0,0E0,1.12222195E-1,4.4397573E0,1.855957E0,2.3734365E0,0E0,0E0,0E0,0E0,0E0,0E0,0E0,0E0,0E0,0E0,0E0,0E0,0E0,0E0,0E0,0E0,0E0,0E0,0E0,0E0,0E0,0E0,0E0,0E0,0E0,0E0,0E0,0E0,0E0,0E0,0E0,0E0,0E0,0E0,0E0,0E0,0E0,0E0,0E0,0E0,0E0,0E0,0E0,0E0],"parents":[2147483647,0,0,1,1,2,2,3,3,4,4,5,5,6,6,7,7,8,8,9,9,11,11,12,12,13,13,14,14,15,15,16,16,17,17,18,18,19,19,20,20,21,21,22,22,24,24,25,25,26,26,27,27,28,28,29,29,30,30,31,31,32,32,33,33,35,35,36,36,37,37,39,39,40,40,41,41,42,42,43,43,44,44,45,45,46,46,47,47,48,48,51,51,52,52,53,53,54,54],"right_children":[2,4,6,8,10,12,14,16,18,20,-1,22,24,26,28,30,32,34,36,38,40,42,44,-1,46,48,50,52,54,56,58,60,62,64,-1,66,68,70,-1,72,74,76,78,80,82,84,86,88,90,-1,-1,92,94,96,98,-1,-1,-1,-1,-1,-1,-1,-1,-1,-1,-1,-1,-1,-1,-1,-1,-1,-1,-1,-1,-1,-1,-1,-1,-1,-1,-1,-1,-1,-1,-1,-1,-1,-1,-1,-1,-1,-1,-1,-1,-1,-1,-1,-1],"split_conditions":[2E0,2.99E1,5.6E1,1.7E1,1E0,9.795E1,1.0595E2,1E0,6.5572284E2,2E0,3.959957E-1,2E0,1E0,7.199829E3,1E0,1.5E1,1.99E1,4.1690936E2,3.4E1,1E0,1.8186815E2,3E0,2.4972E3,-2.8255227E-1,1.00066124E2,1E0,7.3225E3,1E0,6.8E1,1E0,3E0,1.463E2,1E0,1E0,-3.303237E-1,7.5955E2,9.2765E2,2E0,3.7558004E-1,1E0,9.745E1,5.015E1,1E0,1.9E1,1E0,2E1,4.05935E3,5.06745E3,1E0,1.5853381E-1,-2.2977512E-1,6.9E1,6.98135E3,1.0739204E2,2E0,-3.4063138E-2,1.7619841E-1,3.9889318E-1,-7.09564E-2,1.3717425E-1,-2.1252985E-1,-5.2748866E-2,-2.727898E-1,-2.3561896E-1,1.3406806E-1,3.9923593E-1,-2.0402443E-1,-3.2581377E-1,-1.3869628E-1,4.326467E-2,-5.92294E-2,2.4306308E-1,-5.129392E-3,-1.2712425E-1,1.079344E-2,-2.2774838E-1,2.4709256E-1,-1.3144224E-2,-1.2015037E-1,-9.883629E-2,-3.1580412E-1,1.0592775E-1,-1.4055488E-1,3.6586595E-1,3.474435E-2,-1.0557529E-1,8.4941395E-2,-2.76134E-1,-4.3672808E-2,-1.8956293E-1,-3.129088E-1,3.2535768E-1,8.765025E-2,3.3053413E-1,-1.1710679E-1,1.50238145E-2,-3.1307918E-1,1.504414E-1,-1.0692929E-1],"split_indices":[11,17,4,4,11,17,17,14,18,10,0,13,13,18,2,4,17,18,4,10,18,4,18,0,17,12,18,15,4,1,16,18,16,3,0,18,18,9,0,2,17,18,0,4,15,4,18,18,10,0,0,4,18,17,14,0,0,0,0,0,0,0,0,0,0,0,0,0,0,0,0,0,0,0,0,0,0,0,0,0,0,0,0,0,0,0,0,0,0,0,0,0,0,0,0,0,0,0,0],"split_type":[0,0,0,0,0,0,0,0,0,0,0,0,0,0,0,0,0,0,0,0,0,0,0,0,0,0,0,0,0,0,0,0,0,0,0,0,0,0,0,0,0,0,0,0,0,0,0,0,0,0,0,0,0,0,0,0,0,0,0,0,0,0,0,0,0,0,0,0,0,0,0,0,0,0,0,0,0,0,0,0,0,0,0,0,0,0,0,0,0,0,0,0,0,0,0,0,0,0,0],"sum_hessian":[1.1751974E3,9.42189E2,2.330083E2,1.6275793E2,7.794311E2,1.6061298E2,7.239531E1,1.1514582E2,4.7612118E1,7.377276E2,4.1703514E1,1.1794731E2,4.2665676E1,4.1225834E1,3.1169477E1,1.0570031E2,9.44551E0,1.7325958E1,3.0286161E1,5.3322986E2,2.0449776E2,7.463368E1,4.331363E1,1.4761094E0,4.1189564E1,3.910231E1,2.1235244E0,1.130503E1,1.9864449E1,1.0250925E2,3.1910627E0,4.101523E0,5.3439865E0,5.7115397E0,1.1614418E1,4.4233794E0,2.5862782E1,4.9369165E2,3.9538177E1,1.1188661E1,1.933091E2,7.6014805E0,6.70322E1,2.9435873E1,1.3877755E1,7.7831025E0,3.3406464E1,1.4423797E1,2.4678514E1,1.0918946E0,1.0316297E0,3.2656531E0,8.039376E0,8.061483E0,1.1802964E1,9.800377E1,4.5054812E0,1.9392657E0,1.251797E0,2.1083148E0,1.9932082E0,1.024174E0,4.319813E0,4.0567822E0,1.6547571E0,3.2849824E0,1.138397E0,6.6676145E0,1.9195168E1,3.6409692E2,1.2959474E2,9.122712E0,2.0659485E0,1.1053609E2,8.277301E1,2.3986332E0,5.202847E0,3.5902107E1,3.1130095E1,1.83163E1,1.1119574E1,5.2854614E0,8.592294E0,2.9101007E0,4.8730016E0,1.38411E1,1.9565363E1,7.762906E0,6.6608906E0,9.154704E0,1.5523809E1,2.0422297E0,1.2234232E0,1.7445134E0,6.294863E0,1.8651404E0,6.196343E0,4.14324E0,7.659724E0],"tree_param":{"num_deleted":"0","num_feature":"19","num_nodes":"99","size_leaf_vector":"1"}},{"base_weights":[-5.500827E-3,2.5338706E-2,-4.6185994E-1,6.472895E-2,-1.7941222E-1,-6.002816E-1,-9.414771E-2,1.2254054E-1,-1.7502137E-1,-6.3173485E-1,-8.2720004E-2,-7.2600746E-1,-4.294935E-1,1.0113741E-1,-2.4626549E-1,1.8692635E-1,-1.6631247E-1,6.0507927E-2,-2.9936984E-1,7.1299635E-2,-7.8690886E-1,5.956121E-1,-1.2560187E-1,-6.894614E-2,-2.236996E-1,1.3643087E-1,-7.3106015E-1,5.5510324E-1,-1.6543959E-1,2.4829185E-1,-1.2060108E-1,-2.2373256E-1,4.8702756E-1,1.17324814E-1,-4.0086493E-1,-2.575184E-1,-1.0224173E0,-7.570458E-1,3.4019262E-1,-9.912059E-1,-1.5734506E-1,3.0657363E-1,-1.2982166E-1,-2.6088372E-1,1.645669E-1,-1.3850486E-1,2.3231278E-1,-3.167653E-1,-8.436856E-1,-2.0528361E-1,9.78488E-1,1.8609993E-1,-4.2566288E-1,9.438122E-2,3.6101153E-3,2.5553746E-2,-1.1652545E-1,-4.338076E-2,-2.308418E-1,-1.7819154E-1,1.9704817E-1,9.371348E-2,-1.5446695E-2,-2.2585651E-1,8.745426E-2,-9.219944E-2,2.1067736E-1,-3.5192394E-1,-4.7787704E-2,-6.6637695E-2,-2.989795E-1,6.534368E-2,-3.5302567E-1,1.9077559E-1,-1.9614904E-1,2.0120807E-1,-1.8597941E-1,-3.64578E-2,-1.8612409E-1,1.2971845E-1,-8.298664E-2,6.890725E-2,-2.2474575E-1,3.0772245E-2,-2.0739405E-1,-2.715559E-1,-5.6333717E-2,3.525998E-2,3.5754642E-1,2.0137295E-1,-2.9358001E-2,-2.8067482E-1,5.0654437E-2],"categories":[],"categories_nodes":[],"categories_segments":[],"categories_sizes":[],"default_left":[0,0,0,0,0,0,0,0,0,0,0,0,0,0,0,0,0,0,0,0,0,0,0,0,0,0,0,0,0,0,0,0,0,0,0,0,0,0,0,0,0,0,0,0,0,0,0,0,0,0,0,0,0,0,0,0,0,0,0,0,0,0,0,0,0,0,0,0,0,0,0,0,0,0,0,0,0,0,0,0,0,0,0,0,0,0,0,0,0,0,0,0,0],"id":10,"left_children":[1,3,5,7,9,11,13,15,17,19,21,23,25,27,-1,29,31,33,35,37,39,41,43,-1,-1,45,47,49,51,53,55,57,59,61,63,65,67,69,-1,71,73,-1,75,77,79,81,-1,83,85,-1,87,89,91,-1,-1,-1,-1,-1,-1,-1,-1,-1,-1,-1,-1,-1,-1,-1,-1,-1,-1,-1,-1,-1,-1,-1,-1,-1,-1,-1,-1,-1,-1,-1,-1,-1,-1,-1,-1,-1,-1,-1,-1],"loss_changes":[1.5935246E1,8.566786E0,3.5914812E0,1.23619175E1,7.444508E0,8.0225754E-1,3.0331523E0,1.3383584E1,5.0963564E0,3.3330135E0,4.21613E0,1.0599232E-1,4.2721024E0,2.182367E0,0E0,1.1118122E1,5.038125E0,1.6393553E0,3.1757536E0,6.446472E0,3.0195808E0,2.804377E0,5.3317842E0,0E0,0E0,1.7457058E0,4.8427105E-1,4.1436615E0,1.1453125E0,7.675226E0,5.456817E0,5.1340313E0,2.3962922E0,1.8224044E0,1.897821E0,5.415867E0,5.779786E-1,3.1260014E-1,0E0,4.395632E0,3.2663083E0,0E0,2.018492E0,4.5480204E0,5.2542987E0,1.8305668E0,0E0,8.6309916E-1,3.166113E-1,0E0,8.41897E-1,8.444564E-1,2.280346E0,0E0,0E0,0E0,0E0,0E0,0E0,0E0,0E0,0E0,0E0,0E0,0E0,0E0,0E0,0E0,0E0,0E0,0E0,0E0,0E0,0E0,0E0,0E0,0E0,0E0,0E0,0E0,0E0,0E0,0E0,0E0,0E0,0E0,0E0,0E0,0E0,0E0,0E0,0E0,0E0],"parents":[2147483647,0,0,1,1,2,2,3,3,4,4,5,5,6,6,7,7,8,8,9,9,10,10,11,11,12,12,13,13,15,15,16,16,17,17,18,18,19,19,20,20,21,21,22,22,25,25,26,26,27,27,28,28,29,29,30,30,31,31,32,32,33,33,34,34,35,35,36,36,37,37,39,39,40,40,42,42,43,43,44,44,45,45,47,47,48,48,50,50,51,51,52,52],"right_children":[2,4,6,8,10,12,14,16,18,20,22,24,26,28,-1,30,32,34,36,38,40,42,44,-1,-1,46,48,50,52,54,56,58,60,62,64,66,68,70,-1,72,74,-1,76,78,80,82,-1,84,86,-1,88,90,92,-1,-1,-1,-1,-1,-1,-1,-1,-1,-1,-1,-1,-1,-1,-1,-1,-1,-1,-1,-1,-1,-1,-1,-1,-1,-1,-1,-1,-1,-1,-1,-1,-1,-1,-1,-1,-1,-1,-1,-1],"split_conditions":[2E0,1E0,1.0595E2,3E0,1E0,4.44345E3,7.2E1,2E0,2E0,1.8E1,6.995E1,1.9441988E1,5.5006E3,1.0972522E2,-2.4626549E-1,1E0,6.8E1,1E0,4.05935E3,8.045E1,1.0395E2,1E0,9.5E1,-6.894614E-2,-2.236996E-1,9.510459E1,1E0,1E0,1E0,2E0,3E1,5.9E1,7.415E1,1E0,3.645E1,9.44E1,1E0,6E0,3.4019262E-1,1E0,1.053E2,3.0657363E-1,1E0,2E0,4.9325E3,8.095E1,2.3231278E-1,1E0,7.3225E3,-2.0528361E-1,5.1E1,1.1085E2,1E0,9.438122E-2,3.6101153E-3,2.5553746E-2,-1.1652545E-1,-4.338076E-2,-2.308418E-1,-1.7819154E-1,1.9704817E-1,9.371348E-2,-1.5446695E-2,-2.2585651E-1,8.745426E-2,-9.219944E-2,2.1067736E-1,-3.5192394E-1,-4.7787704E-2,-6.6637695E-2,-2.989795E-1,6.534368E-2,-3.5302567E-1,1.9077559E-1,-1.9614904E-1,2.0120807E-1,-1.8597941E-1,-3.64578E-2,-1.8612409E-1,1.2971845E-1,-8.298664E-2,6.890725E-2,-2.2474575E-1,3.0772245E-2,-2.0739405E-1,-2.715559E-1,-5.6333717E-2,3.525998E-2,3.5754642E-1,2.0137295E-1,-2.9358001E-2,-2.8067482E-1,5.0654437E-2],"split_indices":[14,1,17,16,16,18,4,11,4,4,18,17,18,17,0,3,4,6,18,17,17,0,17,0,0,17,10,15,16,10,4,4,17,0,17,17,3,4,0,5,17,0,5,12,18,17,0,8,18,0,4,17,0,0,0,0,0,0,0,0,0,0,0,0,0,0,0,0,0,0,0,0,0,0,0,0,0,0,0,0,0,0,0,0,0,0,0,0,0,0,0,0,0],"split_type":[0,0,0,0,0,0,0,0,0,0,0,0,0,0,0,0,0,0,0,0,0,0,0,0,0,0,0,0,0,0,0,0,0,0,0,0,0,0,0,0,0,0,0,0,0,0,0,0,0,0,0,0,0,0,0,0,0,0,0,0,0,0,0,0,0,0,0,0,0,0,0,0,0,0,0,0,0,0,0,0,0,0,0,0,0,0,0,0,0,0,0,0,0],"sum_hessian":[1.1304236E3,1.0597528E3,7.067079E1,8.8934357E2,1.704092E2,5.088366E1,1.9787134E1,7.16952E2,1.7239154E2,2.9037832E1,1.4137137E2,2.7435823E1,2.3447834E1,1.627471E1,3.5124235E0,5.8655975E2,1.3039227E2,5.9743805E1,1.1264773E2,5.3481073E0,2.3689724E1,7.639256E0,1.3373212E2,1.5291566E0,2.5906668E1,8.341551E0,1.5106283E1,5.620675E0,1.0654036E1,4.8914587E2,9.741389E1,1.2046272E2,9.929552E0,5.3857143E1,5.8866634E0,1.0776617E2,4.881564E0,3.1670368E0,2.1810703E0,1.7452015E1,6.23771E0,4.5542607E0,3.0849955E0,9.127773E1,4.2454376E1,6.376398E0,1.9651531E0,4.043767E0,1.1062516E1,1.2742704E0,4.3464046E0,4.653031E0,6.001004E0,3.816843E2,1.0746158E2,5.547274E1,4.1941147E1,1.06312775E2,1.4149943E1,1.0088449E0,8.920708E0,2.4592112E1,2.926503E1,3.844739E0,2.0419245E0,1.03095245E2,4.670923E0,3.850359E0,1.0312052E0,1.5757169E0,1.5913199E0,2.298848E0,1.5153166E1,2.2930796E0,3.9446306E0,1.0315952E0,2.0534003E0,6.674475E1,2.4532984E1,2.6429832E1,1.6024544E1,4.367082E0,2.009316E0,2.2503934E0,1.7933735E0,9.766694E0,1.2958223E0,1.1711006E0,3.175304E0,1.21439E0,3.438641E0,2.9214973E0,3.079507E0],"tree_param":{"num_deleted":"0","num_feature":"19","num_nodes":"93","size_leaf_vector":"1"}},{"base_weights":[-6.095944E-3,9.602056E-3,-7.5003815E-1,-6.0263015E-2,1.1169042E-1,-4.2211646E-1,-8.926446E-1,1.8401228E-1,-1.1133563E-1,3.489743E-1,7.6890215E-3,-8.65025E-1,1.4407587E-1,-2.8395885E-1,-5.9166037E-2,3.584074E-1,2.035428E-2,-6.764678E-2,-4.6772054E-1,1.2950927E-1,3.7506518E-1,-2.4149095E-1,1.1623182E-1,-3.4054068E-1,-4.0441376E-1,1.5084067E-1,-9.199762E-2,-5.9915435E-1,1.2184631E-1,-2.0580582E-1,2.8406775E-2,-5.722266E-1,9.2886806E-1,3.819952E-1,-2.4025898E-1,-3.2431465E-2,-4.687295E-1,6.3978714E-1,4.7988433E-2,3.2387618E-2,-1.984474E-1,-8.8252485E-2,-4.4655344E-1,7.956146E-2,-1.0313548E-1,-5.0393738E-2,-3.1870013E-1,1.6095412E-1,-2.4240315E-2,-3.538849E-1,-1.3515027E-1,-4.9845617E-2,4.1400206E-1,1.8696521E-1,2.5302263E-2,7.266531E-2,-1.8659554E-1,-5.479664E-2,3.4489307E-1,2.2994244E-1,-1.5489264E-1,2.5926061E-2,2.542489E-1,1.367584E-1,6.301957E-4],"categories":[],"categories_nodes":[],"categories_segments":[],"categories_sizes":[],"default_left":[0,0,0,0,0,0,0,0,0,0,0,0,0,0,0,0,0,0,0,0,0,0,0,0,0,0,0,0,0,0,0,0,0,0,0,0,0,0,0,0,0,0,0,0,0,0,0,0,0,0,0,0,0,0,0,0,0,0,0,0,0,0,0,0,0],"id":11,"left_children":[1,3,5,7,9,11,13,15,17,19,21,23,25,-1,-1,-1,27,29,31,33,-1,35,37,-1,39,-1,-1,41,43,45,47,49,51,53,55,57,59,61,63,-1,-1,-1,-1,-1,-1,-1,-1,-1,-1,-1,-1,-1,-1,-1,-1,-1,-1,-1,-1,-1,-1,-1,-1,-1,-1],"loss_changes":[1.2816852E1,7.6754055E0,6.8377495E-1,7.9923296E0,1.0786509E1,2.324079E0,3.7199783E-1,1.8314648E1,8.206674E0,2.6185432E1,8.277136E0,1.709671E-1,9.152366E-1,0E0,0E0,0E0,6.1365952E0,6.2762613E0,8.939977E0,1.0196984E1,0E0,4.3966317E0,7.584093E0,0E0,5.2259445E-1,0E0,0E0,3.290038E0,5.677954E0,6.1038465E0,1.5558232E1,3.4772625E0,2.3990073E0,4.5933275E0,8.352367E0,8.989917E0,3.0066042E0,2.7422562E0,3.5482259E0,0E0,0E0,0E0,0E0,0E0,0E0,0E0,0E0,0E0,0E0,0E0,0E0,0E0,0E0,0E0,0E0,0E0,0E0,0E0,0E0,0E0,0E0,0E0,0E0,0E0,0E0],"parents":[2147483647,0,0,1,1,2,2,3,3,4,4,5,5,6,6,7,7,8,8,9,9,10,10,11,11,12,12,16,16,17,17,18,18,19,19,21,21,22,22,24,24,27,27,28,28,29,29,30,30,31,31,32,32,33,33,34,34,35,35,36,36,37,37,38,38],"right_children":[2,4,6,8,10,12,14,16,18,20,22,24,26,-1,-1,-1,28,30,32,34,-1,36,38,-1,40,-1,-1,42,44,46,48,50,52,54,56,58,60,62,64,-1,-1,-1,-1,-1,-1,-1,-1,-1,-1,-1,-1,-1,-1,-1,-1,-1,-1,-1,-1,-1,-1,-1,-1,-1,-1],"split_conditions":[7.1E1,8.184815E1,1E0,1E0,2E0,2E0,1.158E2,1E0,2E0,1E0,9.510459E1,1.0160391E2,1E0,-2.8395885E-1,-5.9166037E-2,3.584074E-1,2.53E1,5.035E1,6.4E1,2E0,3.7506518E-1,2E0,1.3E1,-3.4054068E-1,7.2E1,1.5084067E-1,-9.199762E-2,2.515E1,2E0,1.33445E3,1.185E2,6.145E1,1E0,1E0,2E0,1E0,8.325E1,1E0,2E0,3.2387618E-2,-1.984474E-1,-8.8252485E-2,-4.4655344E-1,7.956146E-2,-1.0313548E-1,-5.0393738E-2,-3.1870013E-1,1.6095412E-1,-2.4240315E-2,-3.538849E-1,-1.3515027E-1,-4.9845617E-2,4.1400206E-1,1.8696521E-1,2.5302263E-2,7.266531E-2,-1.8659554E-1,-5.479664E-2,3.4489307E-1,2.2994244E-1,-1.5489264E-1,2.5926061E-2,2.542489E-1,1.367584E-1,6.301957E-4],"split_indices":[4,17,8,5,12,14,17,6,13,12,17,17,11,0,0,0,17,17,4,10,0,6,4,0,4,0,0,17,11,18,18,17,0,0,13,6,17,6,13,0,0,0,0,0,0,0,0,0,0,0,0,0,0,0,0,0,0,0,0,0,0,0,0,0,0],"split_type":[0,0,0,0,0,0,0,0,0,0,0,0,0,0,0,0,0,0,0,0,0,0,0,0,0,0,0,0,0,0,0,0,0,0,0,0,0,0,0,0,0,0,0,0,0,0,0,0,0,0,0,0,0,0,0,0,0,0,0,0,0,0,0,0,0],"sum_hessian":[1.0958663E3,1.0741869E3,2.1679434E1,6.379856E2,4.3620135E2,7.770736E0,1.3908698E1,1.09872635E2,5.28113E2,1.3220781E2,3.0399356E2,4.0639133E0,3.7068229E0,1.2573371E1,1.3353266E0,1.4434104E1,9.543853E1,4.7150186E2,5.66111E1,1.0723766E2,2.4970142E1,9.186825E1,2.121253E2,1.6385986E0,2.4253147E0,1.9997576E0,1.7070651E0,1.2744215E1,8.269431E1,1.9290028E2,2.7860156E2,5.3219013E1,3.3920853E0,6.3705246E1,4.3532417E1,4.8443207E1,4.3425037E1,2.3495499E1,1.886298E2,1.0041106E0,1.4212041E0,1.0480874E1,2.2633412E0,6.3556866E1,1.9137447E1,1.858871E2,7.013187E0,4.85946E1,2.3000697E2,7.4339833E0,4.578503E1,1.1740628E0,2.2180223E0,3.4584137E1,2.9121107E1,1.9390089E1,2.4142326E1,4.3731117E1,4.7120895E0,1.0502452E0,4.237479E1,6.7987404E0,1.6696758E1,1.81722E1,1.704576E2],"tree_param":{"num_deleted":"0","num_feature":"19","num_nodes":"65","size_leaf_vector":"1"}},{"base_weights":[-2.635222E-3,9.793577E-3,-6.631783E-1,4.4622127E-2,-1.3310586E-1,-8.59362E-1,-3.9397103E-1,8.5305944E-2,-1.6880155E-1,-2.9099546E-2,-2.614711E-1,-3.614454E-1,-2.8092596E-1,-7.1625376E-1,-7.2527856E-2,-5.4491132E-2,1.8154745E-1,-4.3680528E-1,-2.6405431E-2,-8.954272E-2,7.323025E-1,-3.11055E-1,-1.5902483E-1,-5.768919E-3,-1.5633637E-1,-2.7507997E-1,-7.434094E-2,2.3380387E-1,-4.3085378E-1,5.384442E-2,-2.242571E-1,1.2975174E-1,3.513285E-1,-5.900462E-1,3.1901023E-1,-4.8881206E-1,6.152898E-2,-2.55941E-1,8.8219285E-2,1.246553E0,4.050907E-2,6.6700906E-1,-2.2197202E-1,-1.0706617E-1,1.9200478E-1,-1.7587519E-1,-1.7261159E-2,2.9477628E-2,-2.1815552E-1,7.808273E-3,-1.0506585E-1,6.9004774E-2,-2.710328E-2,-2.270508E-1,-4.0576972E-2,-1.5540054E-1,1.7535478E-1,-2.4295236E-1,-5.1334713E-2,7.1280286E-2,-3.569342E-2,-2.5610998E-1,-5.5405293E-2,7.72176E-2,-9.797152E-2,6.0701955E-2,4.578113E-1,-1.3427435E-1,1.2253973E-1,-7.195329E-2,2.886159E-1,-8.354306E-2,1.1915133E-1],"categories":[],"categories_nodes":[],"categories_segments":[],"categories_sizes":[],"default_left":[0,0,0,0,0,0,0,0,0,0,0,0,0,0,0,0,0,0,0,0,0,0,0,0,0,0,0,0,0,0,0,0,0,0,0,0,0,0,0,0,0,0,0,0,0,0,0,0,0,0,0,0,0,0,0,0,0,0,0,0,0,0,0,0,0,0,0,0,0,0,0,0,0],"id":12,"left_children":[1,3,5,7,9,11,13,15,17,19,21,23,-1,25,27,29,31,33,35,37,39,-1,41,-1,-1,-1,-1,43,45,47,49,51,-1,53,55,57,59,61,63,65,67,69,71,-1,-1,-1,-1,-1,-1,-1,-1,-1,-1,-1,-1,-1,-1,-1,-1,-1,-1,-1,-1,-1,-1,-1,-1,-1,-1,-1,-1,-1,-1],"loss_changes":[8.812377E0,5.25062E0,7.0842934E-1,7.3777566E0,2.7527623E0,6.903839E-2,1.0050696E0,9.601732E0,5.1827674E0,5.3737297E0,7.176181E0,1.5675247E-1,0E0,2.411623E-1,7.835909E-1,5.372388E0,2.1501354E1,5.6505575E0,3.687492E0,3.209716E0,3.0060663E0,0E0,4.4539995E0,0E0,0E0,0E0,0E0,1.1886882E0,1.5300608E-1,6.2711477E0,3.5946283E0,8.9048E0,0E0,2.8986006E0,2.2137814E0,1.3386271E0,2.4584703E0,2.2237694E0,3.7918577E0,1.1196971E0,1.0263965E0,1.8664734E0,2.8288589E0,0E0,0E0,0E0,0E0,0E0,0E0,0E0,0E0,0E0,0E0,0E0,0E0,0E0,0E0,0E0,0E0,0E0,0E0,0E0,0E0,0E0,0E0,0E0,0E0,0E0,0E0,0E0,0E0,0E0,0E0],"parents":[2147483647,0,0,1,1,2,2,3,3,4,4,5,5,6,6,7,7,8,8,9,9,10,10,11,11,13,13,14,14,15,15,16,16,17,17,18,18,19,19,20,20,22,22,27,27,28,28,29,29,30,30,31,31,33,33,34,34,35,35,36,36,37,37,38,38,39,39,40,40,41,41,42,42],"right_children":[2,4,6,8,10,12,14,16,18,20,22,24,-1,26,28,30,32,34,36,38,40,-1,42,-1,-1,-1,-1,44,46,48,50,52,-1,54,56,58,60,62,64,66,68,70,72,-1,-1,-1,-1,-1,-1,-1,-1,-1,-1,-1,-1,-1,-1,-1,-1,-1,-1,-1,-1,-1,-1,-1,-1,-1,-1,-1,-1,-1,-1],"split_conditions":[7.1E1,2E0,1.0160391E2,1E0,4.2E1,5.45E1,1E0,6.145E1,1E0,3.9E1,5.7541656E1,2E0,-2.8092596E-1,1.092E2,7.7239E3,1E1,1E0,1E0,1E0,1E0,8.005E1,-3.11055E-1,3.23385E3,-5.768919E-3,-1.5633637E-1,-2.7507997E-1,-7.434094E-2,2E0,1.158E2,5.525E1,1E0,2E0,3.513285E-1,1E0,1E0,1E0,1E0,7.085E1,3E1,1E0,1E0,2.8849E3,7.7239E3,-1.0706617E-1,1.9200478E-1,-1.7587519E-1,-1.7261159E-2,2.9477628E-2,-2.1815552E-1,7.808273E-3,-1.0506585E-1,6.9004774E-2,-2.710328E-2,-2.270508E-1,-4.0576972E-2,-1.5540054E-1,1.7535478E-1,-2.4295236E-1,-5.1334713E-2,7.1280286E-2,-3.569342E-2,-2.5610998E-1,-5.5405293E-2,7.72176E-2,-9.797152E-2,6.0701955E-2,4.578113E-1,-1.3427435E-1,1.2253973E-1,-7.195329E-2,2.886159E-1,-8.354306E-2,1.1915133E-1],"split_indices":[4,8,17,1,4,17,0,17,6,4,17,6,0,17,18,4,8,11,16,6,17,0,18,0,0,0,0,14,17,17,5,9,0,9,16,10,2,18,4,9,10,18,18,0,0,0,0,0,0,0,0,0,0,0,0,0,0,0,0,0,0,0,0,0,0,0,0,0,0,0,0,0,0],"split_type":[0,0,0,0,0,0,0,0,0,0,0,0,0,0,0,0,0,0,0,0,0,0,0,0,0,0,0,0,0,0,0,0,0,0,0,0,0,0,0,0,0,0,0,0,0,0,0,0,0,0,0,0,0,0,0,0,0,0,0,0,0,0,0,0,0,0,0,0,0,0,0,0,0],"sum_hessian":[1.0716118E3,1.0527877E3,1.8824112E1,8.470306E2,2.0575708E2,9.6208E0,9.203311E0,7.1192114E2,1.3510944E2,1.1434068E2,9.14164E1,2.052024E0,7.568776E0,3.9823327E0,5.2209783E0,2.90453E2,4.2146817E2,4.6161446E1,8.894799E1,1.06748924E2,7.5917635E0,9.604263E0,8.181213E1,1.0093101E0,1.0427139E0,2.1177406E0,1.8645921E0,3.0020475E0,2.2189307E0,1.777227E2,1.12730286E2,4.015795E2,1.9888678E1,3.8562298E1,7.599148E0,1.3483842E1,7.546415E1,5.4909657E1,5.1839264E1,3.8946948E0,3.6970685E0,5.1134734E0,7.669866E1,1.2727342E0,1.7293135E0,1.1640135E0,1.0549172E0,1.6898721E2,8.735501E0,3.8006172E1,7.4724106E1,2.758649E2,1.257146E2,2.772886E1,1.0833437E1,1.6009909E0,5.9981565E0,5.936232E0,7.54761E0,3.8041264E1,3.7422882E1,4.67887E0,5.0230785E1,3.7091106E1,1.4748158E1,1.1863222E0,2.7083726E0,1.4961057E0,2.200963E0,1.3011918E0,3.8122816E0,7.078851E1,5.91015E0],"tree_param":{"num_deleted":"0","num_feature":"19","num_nodes":"73","size_leaf_vector":"1"}},{"base_weights":[-2.6592335E-3,1.5490649E-2,-3.2433835E-1,7.57555E-2,-5.484301E-2,-5.9404445E-1,-1.6541871E-1,-1.072499E-1,1.505338E-1,-2.0484243E-1,2.7336344E-2,-4.125641E-1,-2.7023318E-1,-3.960891E-2,-7.4008995E-1,-2.6918475E-2,-7.0728093E-1,2.9730433E-1,1.139853E-3,-2.4427208E-1,5.013549E-1,-9.59639E-2,9.859321E-2,-5.804594E-1,2.4947388E-1,2.5772294E-1,-1.0053944E-1,-2.535831E-1,-4.5155585E-2,1.9083558E-2,-7.951215E-1,-3.6942977E-1,-1.0423124E0,1.349407E-1,3.548566E-1,-1.205339E-1,1.557019E-1,-6.4263254E-2,-4.0434086E-1,6.2772727E-1,-7.843496E-3,-1.6443539E-1,5.7972217E-1,5.2773315E-1,5.114422E-2,-7.2277206E-1,-1.4621426E-1,1.9744137E-1,-2.9885525E-1,-7.3198057E-3,3.0402106E-1,-3.9940923E-1,4.804327E-2,2.4494712E-1,-1.8658774E-1,-3.7362194E-1,-1.617808E-1,1.9800626E-1,1.8302305E-2,2.555144E-2,-1.820442E-1,2.504186E-1,1.2728794E-2,6.645347E-2,-8.881265E-2,-2.224559E-1,-5.5236954E-2,-2.7413175E-3,2.2173642E-1,1.4311226E-2,-1.6190688E-1,3.8981426E-1,-4.1489474E-2,2.7756009E-1,-5.032958E-3,2.8016262E-2,-1.2367678E-1,-7.542792E-2,-2.6456073E-1,1.6071358E-1,-2.0418152E-1,-4.756032E-2,1.9871302E-1,3.4131266E-2,-1.5861389E-1],"categories":[],"categories_nodes":[],"categories_segments":[],"categories_sizes":[],"default_left":[0,0,0,0,0,0,0,0,0,0,0,0,0,0,0,0,0,0,0,0,0,0,0,0,0,0,0,0,0,0,0,0,0,0,0,0,0,0,0,0,0,0,0,0,0,0,0,0,0,0,0,0,0,0,0,0,0,0,0,0,0,0,0,0,0,0,0,0,0,0,0,0,0,0,0,0,0,0,0,0,0,0,0,0,0],"id":13,"left_children":[1,3,5,7,9,11,13,15,17,19,21,23,-1,25,27,29,31,33,35,37,39,41,43,45,-1,-1,47,-1,-1,49,51,53,55,57,-1,59,61,63,65,67,-1,69,71,73,75,77,79,81,83,-1,-1,-1,-1,-1,-1,-1,-1,-1,-1,-1,-1,-1,-1,-1,-1,-1,-1,-1,-1,-1,-1,-1,-1,-1,-1,-1,-1,-1,-1,-1,-1,-1,-1,-1,-1],"loss_changes":[6.1470118E0,4.229069E0,2.3118954E0,7.367963E0,5.6825647E0,7.674465E-1,2.6290274E0,7.5207443E0,8.371274E0,4.6646705E0,2.63131E0,3.553587E0,0E0,1.7959679E0,2.7880073E-1,4.92704E0,1.7009878E0,2.7530893E1,3.5959494E0,4.445056E0,6.132846E-1,5.1752863E0,3.8339305E0,7.312069E-1,0E0,0E0,1.8397627E0,0E0,0E0,5.7369146E0,4.2479587E0,3.719791E0,2.1766949E-1,6.3215637E0,0E0,1.0754306E1,6.442359E0,4.9819818E0,5.948125E0,5.2203417E-1,0E0,8.024327E0,5.5144024E0,4.0778866E0,3.4023888E0,5.2411795E-1,2.0395448E0,2.1975832E0,1.8139014E0,0E0,0E0,0E0,0E0,0E0,0E0,0E0,0E0,0E0,0E0,0E0,0E0,0E0,0E0,0E0,0E0,0E0,0E0,0E0,0E0,0E0,0E0,0E0,0E0,0E0,0E0,0E0,0E0,0E0,0E0,0E0,0E0,0E0,0E0,0E0,0E0],"parents":[2147483647,0,0,1,1,2,2,3,3,4,4,5,5,6,6,7,7,8,8,9,9,10,10,11,11,13,13,14,14,15,15,16,16,17,17,18,18,19,19,20,20,21,21,22,22,23,23,26,26,29,29,30,30,31,31,32,32,33,33,35,35,36,36,37,37,38,38,39,39,41,41,42,42,43,43,44,44,45,45,46,46,47,47,48,48],"right_children":[2,4,6,8,10,12,14,16,18,20,22,24,-1,26,28,30,32,34,36,38,40,42,44,46,-1,-1,48,-1,-1,50,52,54,56,58,-1,60,62,64,66,68,-1,70,72,74,76,78,80,82,84,-1,-1,-1,-1,-1,-1,-1,-1,-1,-1,-1,-1,-1,-1,-1,-1,-1,-1,-1,-1,-1,-1,-1,-1,-1,-1,-1,-1,-1,-1,-1,-1,-1,-1,-1,-1],"split_conditions":[2E0,1E0,4.44345E3,5.555E1,2E0,5.86E1,7.2E1,1.21565E3,2E0,7.06925E3,1E0,5.315E1,-2.7023318E-1,7.075E1,2E0,2E0,1E0,1E0,9.59E1,1.47625E3,7.1E1,3.88785E3,1E0,2E0,2.4947388E-1,2.5772294E-1,1E0,-2.535831E-1,-4.5155585E-2,1.01E3,6.6617395E2,1E0,1E0,9.51E1,3.548566E-1,2E0,2.46775E3,1E0,1E0,6.7E1,-7.843496E-3,6.015E1,9.405E1,1.4E1,5.6E1,1.98E1,1.33445E3,6.9E1,1E0,-7.3198057E-3,3.0402106E-1,-3.9940923E-1,4.804327E-2,2.4494712E-1,-1.8658774E-1,-3.7362194E-1,-1.617808E-1,1.9800626E-1,1.8302305E-2,2.555144E-2,-1.820442E-1,2.504186E-1,1.2728794E-2,6.645347E-2,-8.881265E-2,-2.224559E-1,-5.5236954E-2,-2.7413175E-3,2.2173642E-1,1.4311226E-2,-1.6190688E-1,3.8981426E-1,-4.1489474E-2,2.7756009E-1,-5.032958E-3,2.8016262E-2,-1.2367678E-1,-7.542792E-2,-2.6456073E-1,1.6071358E-1,-2.0418152E-1,-4.756032E-2,1.9871302E-1,3.4131266E-2,-1.5861389E-1],"split_indices":[14,0,18,17,16,17,4,18,6,18,15,17,0,17,16,12,5,6,17,18,4,18,5,6,0,0,16,0,0,18,18,6,2,18,0,12,18,15,13,4,0,17,17,4,4,17,18,4,2,0,0,0,0,0,0,0,0,0,0,0,0,0,0,0,0,0,0,0,0,0,0,0,0,0,0,0,0,0,0,0,0,0,0,0,0],"split_type":[0,0,0,0,0,0,0,0,0,0,0,0,0,0,0,0,0,0,0,0,0,0,0,0,0,0,0,0,0,0,0,0,0,0,0,0,0,0,0,0,0,0,0,0,0,0,0,0,0,0,0,0,0,0,0,0,0,0,0,0,0,0,0,0,0,0,0,0,0,0,0,0,0,0,0,0,0,0,0,0,0,0,0,0,0],"sum_hessian":[1.0509915E3,9.957602E2,5.523126E1,5.362239E2,4.5953635E2,1.9462683E1,3.5768578E1,1.5542268E2,3.8080118E2,1.6212393E2,2.974124E2,1.3701271E1,5.7614126E0,3.0221306E1,5.54727E0,1.3799318E2,1.7429499E1,1.9158772E2,1.8921347E2,1.5417014E2,7.953795E0,1.08800804E2,1.8861162E2,1.2542171E1,1.1591007E0,1.0871582E0,2.9134148E1,4.339358E0,1.2079117E0,1.3111673E2,6.8764586E0,9.725161E0,7.7043376E0,1.62877E2,2.8710724E1,1.0599368E2,8.321979E1,7.322493E1,8.0945206E1,6.2633004E0,1.6904947E0,9.947684E1,9.32397E0,1.777034E1,1.7084126E2,8.945938E0,3.5962327E0,1.1643515E1,1.7490635E1,1.26557655E2,4.55907E0,4.1520033E0,2.724455E0,1.3152548E0,8.409905E0,4.43717E0,3.2671678E0,1.912462E1,1.4375237E2,7.5064766E1,3.0928917E1,1.0987091E1,7.22327E1,3.2812557E1,4.0412376E1,3.1044807E1,4.99004E1,1.0690832E0,5.194217E0,6.410803E1,3.536881E1,4.2522984E0,5.071672E0,9.868005E0,7.9023356E0,1.5730032E2,1.3540944E1,2.9087427E0,6.037195E0,1.5789243E0,2.0173082E0,6.967724E0,4.6757903E0,6.438206E0,1.1052428E1],"tree_param":{"num_deleted":"0","num_feature":"19","num_nodes":"85","size_leaf_vector":"1"}},{"base_weights":[-1.2168913E-3,7.595591E-3,-5.4712516E-1,-4.084861E-2,7.936332E-2,-2.1459034E-1,-7.566415E-1,8.2681095E-3,-2.4034634E-1,3.1805065E-1,-1.62841E-2,-6.002983E-1,2.529561E-1,-8.3452404E-1,-3.5136882E-2,-2.5032565E-2,2.563686E-1,-2.9132167E-1,4.6294674E-1,1.1490474E-1,3.4653193E-1,-1.1336036E-1,1.400962E-1,-2.207865E-1,-2.3054503E-2,1.4853196E-1,-4.9676508E-2,-6.304344E-2,-2.748107E-1,1.7648036E-2,-3.5969388E-1,5.7336944E-1,-2.9989728E-1,-1.3150673E-1,-5.858079E-1,8.9517874E-1,-2.1904401E-1,-3.52303E-1,2.112344E-1,3.333846E-1,-1.9784617E-1,5.049883E-1,-2.6274992E-2,1.639523E-2,-1.22972764E-1,-3.5899352E-2,-3.0596754E-1,2.4045867E-1,2.4562841E-2,8.171764E-3,-1.9675243E-1,-8.238405E-2,1.6136535E-1,-3.0190963E-1,-1.1668413E-1,3.7135828E-1,-6.783492E-2,2.4155681E-1,-1.5026902E-1,8.885183E-2,-3.790148E-2,2.742318E-2,2.0490079E-1,3.3249924E-1,-6.5033935E-2,2.4421076E-1,6.387352E-2,1.2469937E-1,-3.0278891E-2],"categories":[],"categories_nodes":[],"categories_segments":[],"categories_sizes":[],"default_left":[0,0,0,0,0,0,0,0,0,0,0,0,0,0,0,0,0,0,0,0,0,0,0,0,0,0,0,0,0,0,0,0,0,0,0,0,0,0,0,0,0,0,0,0,0,0,0,0,0,0,0,0,0,0,0,0,0,0,0,0,0,0,0,0,0,0,0,0,0],"id":14,"left_children":[1,3,5,7,9,11,13,15,17,19,21,23,25,27,-1,29,31,33,35,37,-1,39,41,-1,-1,-1,-1,-1,-1,43,45,47,49,51,53,55,-1,57,59,61,63,65,67,-1,-1,-1,-1,-1,-1,-1,-1,-1,-1,-1,-1,-1,-1,-1,-1,-1,-1,-1,-1,-1,-1,-1,-1,-1,-1],"loss_changes":[4.9741E0,3.5413485E0,9.8202324E-1,5.9616346E0,9.375545E0,1.5485126E0,3.8443136E-1,4.046637E0,4.4438286E0,1.9842337E1,4.478651E0,2.6584458E-1,5.081141E-1,2.383976E-1,0E0,6.177678E0,1.0392199E1,5.226201E0,5.041705E0,4.378741E0,0E0,6.9327345E0,6.875784E0,0E0,0E0,0E0,0E0,0E0,0E0,6.099836E0,7.629569E0,4.112976E0,2.544187E0,7.2683682E0,2.8664474E0,2.8526206E0,0E0,3.2796266E0,2.3288329E0,2.4168537E0,4.0395226E0,3.0265894E0,2.6349359E0,0E0,0E0,0E0,0E0,0E0,0E0,0E0,0E0,0E0,0E0,0E0,0E0,0E0,0E0,0E0,0E0,0E0,0E0,0E0,0E0,0E0,0E0,0E0,0E0,0E0,0E0],"parents":[2147483647,0,0,1,1,2,2,3,3,4,4,5,5,6,6,7,7,8,8,9,9,10,10,11,11,12,12,13,13,15,15,16,16,17,17,18,18,19,19,21,21,22,22,29,29,30,30,31,31,32,32,33,33,34,34,35,35,37,37,38,38,39,39,40,40,41,41,42,42],"right_children":[2,4,6,8,10,12,14,16,18,20,22,24,26,28,-1,30,32,34,36,38,-1,40,42,-1,-1,-1,-1,-1,-1,44,46,48,50,52,54,56,-1,58,60,62,64,66,68,-1,-1,-1,-1,-1,-1,-1,-1,-1,-1,-1,-1,-1,-1,-1,-1,-1,-1,-1,-1,-1,-1,-1,-1,-1,-1],"split_conditions":[7.1E1,8.184815E1,1E0,2E0,2E0,2E0,1.158E2,2.1063E3,4.61455E3,1E0,1.0160391E2,7.5815E3,1E0,1E0,-3.5136882E-2,2E0,5E1,2.8E1,1E0,1E0,3.4653193E-1,8E0,2E0,-2.207865E-1,-2.3054503E-2,1.4853196E-1,-4.9676508E-2,-6.304344E-2,-2.748107E-1,1E0,1.01E3,1E0,2E0,2.2E1,1E0,2E0,-2.1904401E-1,1E1,1E0,1E0,8.285E1,2E0,1.0395E2,1.639523E-2,-1.22972764E-1,-3.5899352E-2,-3.0596754E-1,2.4045867E-1,2.4562841E-2,8.171764E-3,-1.9675243E-1,-8.238405E-2,1.6136535E-1,-3.0190963E-1,-1.1668413E-1,3.7135828E-1,-6.783492E-2,2.4155681E-1,-1.5026902E-1,8.885183E-2,-3.790148E-2,2.742318E-2,2.0490079E-1,3.3249924E-1,-6.5033935E-2,2.4421076E-1,6.387352E-2,1.2469937E-1,-3.0278891E-2],"split_indices":[4,17,8,6,13,14,17,18,18,13,17,18,11,2,0,13,4,4,7,16,0,4,9,0,0,0,0,0,0,14,18,7,10,4,16,12,0,4,1,6,17,11,17,0,0,0,0,0,0,0,0,0,0,0,0,0,0,0,0,0,0,0,0,0,0,0,0,0,0],"split_type":[0,0,0,0,0,0,0,0,0,0,0,0,0,0,0,0,0,0,0,0,0,0,0,0,0,0,0,0,0,0,0,0,0,0,0,0,0,0,0,0,0,0,0,0,0,0,0,0,0,0,0,0,0,0,0,0,0,0,0,0,0,0,0,0,0,0,0,0,0],"sum_hessian":[1.0320791E3,1.0166536E3,1.5425539E1,6.072096E2,4.09444E2,6.744769E0,8.680771E0,4.8801736E2,1.1919224E2,1.16469666E2,2.9297433E2,3.5402584E0,3.2045107E0,7.4665465E0,1.214224E0,4.310587E2,5.695868E1,1.1168312E2,7.5091176E0,9.463892E1,2.1830744E1,1.8093213E2,1.1204221E2,2.489192E0,1.0510663E0,1.9141483E0,1.2903622E0,1.2753619E0,6.1911845E0,3.831424E2,4.7916306E1,3.6262768E1,2.0695911E1,7.333272E1,3.8350407E1,5.695471E0,1.8136466E0,1.5723113E1,7.891581E1,2.830653E1,1.526256E2,3.4449917E1,7.759229E1,3.5342737E2,2.9715017E1,3.600658E1,1.1909725E1,2.433517E1,1.1927597E1,1.1265571E1,9.430342E0,6.090237E1,1.2430345E1,1.091673E1,2.7433678E1,4.2826743E0,1.4127966E0,1.2861022E0,1.4437011E1,6.314917E1,1.576664E1,1.7474037E1,1.0832492E1,1.358645E0,1.5126695E2,1.587036E1,1.857956E1,1.0552993E1,6.70393E1],"tree_param":{"num_deleted":"0","num_feature":"19","num_nodes":"69","size_leaf_vector":"1"}},{"base_weights":[-5.080808E-4,2.9105112E-2,-1.1976866E-1,-1.35709E-1,5.9534714E-2,-4.4442896E-2,-3.126153E-1,-9.139272E-2,-7.0151466E-1,2.4680855E-2,9.343527E-1,-9.6033104E-2,4.1074696E-1,-2.4895006E-1,-2.2616664E-1,-3.0525126E-2,-3.7161523E-1,-9.26445E-1,9.784876E-2,6.323467E-2,-1.3393062E-1,3.377861E-1,-2.5174087E-1,-1.6834503E-1,2.973314E-1,9.382687E-2,-3.7422445E-1,7.809218E-2,-2.4122433E-1,-8.7503105E-1,-8.373819E-3,-1.2122527E0,9.3505375E-2,1.3027644E-1,-9.368373E-2,-4.189565E-1,-2.4233865E-2,1.3475828E-1,-2.387721E-1,-5.1060237E-2,-5.745614E-1,-4.8872165E-2,9.1232014E-1,-1.5436712E-1,7.5768065E-1,-7.4681866E-1,-1.0044666E-1,-5.413628E-2,5.890895E-2,-1.7753008E-1,7.728419E-2,-4.806861E-2,-2.8586572E-1,4.9410596E-1,-1.0180611E-1,-1.2696728E-1,-4.379637E-1,1.4373777E-2,3.601797E-1,-4.678031E-2,1.376148E-1,-1.7630887E-1,6.55241E-2,8.421332E-2,-6.676968E-2,-9.815511E-2,3.510929E-2,-2.3184016E-1,-9.159546E-2,3.605366E-1,-8.574941E-2,3.8149875E-1,5.480509E-2,3.397505E-2,-1.8407008E-1,3.184382E-1,2.5616251E-2,-5.734884E-2,-2.7161467E-1,2.0839562E-1,-1.00149065E-1],"categories":[],"categories_nodes":[],"categories_segments":[],"categories_sizes":[],"default_left":[0,0,0,0,0,0,0,0,0,0,0,0,0,0,0,0,0,0,0,0,0,0,0,0,0,0,0,0,0,0,0,0,0,0,0,0,0,0,0,0,0,0,0,0,0,0,0,0,0,0,0,0,0,0,0,0,0,0,0,0,0,0,0,0,0,0,0,0,0,0,0,0,0,0,0,0,0,0,0,0,0],"id":15,"left_children":[1,3,5,7,9,11,13,15,17,19,21,23,-1,-1,25,27,29,31,-1,33,35,-1,37,39,41,43,45,47,49,51,53,55,-1,57,59,61,63,-1,-1,65,67,69,71,73,75,77,79,-1,-1,-1,-1,-1,-1,-1,-1,-1,-1,-1,-1,-1,-1,-1,-1,-1,-1,-1,-1,-1,-1,-1,-1,-1,-1,-1,-1,-1,-1,-1,-1,-1,-1],"loss_changes":[3.5987308E0,4.102042E0,2.9304476E0,3.1336236E0,2.1008768E1,1.0846274E1,2.350532E0,2.0254817E0,2.4087772E0,4.0711746E0,6.2833633E0,4.1087008E0,0E0,0E0,2.4045708E0,2.2889993E0,3.8730688E0,3.1158028E0,0E0,5.6419463E0,4.0617666E0,0E0,2.0697439E0,5.7433867E0,4.8389316E0,2.855319E0,3.43329E0,2.0600233E0,6.095498E0,3.4174538E-1,7.8657317E0,6.503229E-1,0E0,3.303331E1,5.60013E0,4.0142875E0,5.8142424E0,0E0,0E0,4.45308E0,1.2077484E0,4.8945274E0,1.907526E0,1.6581875E0,8.676038E-1,1.0967102E0,4.12511E0,0E0,0E0,0E0,0E0,0E0,0E0,0E0,0E0,0E0,0E0,0E0,0E0,0E0,0E0,0E0,0E0,0E0,0E0,0E0,0E0,0E0,0E0,0E0,0E0,0E0,0E0,0E0,0E0,0E0,0E0,0E0,0E0,0E0,0E0],"parents":[2147483647,0,0,1,1,2,2,3,3,4,4,5,5,6,6,7,7,8,8,9,9,10,10,11,11,14,14,15,15,16,16,17,17,19,19,20,20,22,22,23,23,24,24,25,25,26,26,27,27,28,28,29,29,30,30,31,31,33,33,34,34,35,35,36,36,39,39,40,40,41,41,42,42,43,43,44,44,45,45,46,46],"right_children":[2,4,6,8,10,12,14,16,18,20,22,24,-1,-1,26,28,30,32,-1,34,36,-1,38,40,42,44,46,48,50,52,54,56,-1,58,60,62,64,-1,-1,66,68,70,72,74,76,78,80,-1,-1,-1,-1,-1,-1,-1,-1,-1,-1,-1,-1,-1,-1,-1,-1,-1,-1,-1,-1,-1,-1,-1,-1,-1,-1,-1,-1,-1,-1,-1,-1,-1,-1],"split_conditions":[2E0,2.53E1,4.84705E3,2.495E1,1E0,4.743348E3,5.2329E3,2E1,1E0,1E0,2E0,1E0,4.1074696E-1,-2.4895006E-1,6E1,2.025E1,6.5572284E2,1E0,9.784876E-2,2E0,7.415E1,3.377861E-1,2E0,4.2E1,3.6E1,6.128204E3,6.7E1,1.96E1,2.085E1,4.057E2,3.2E1,6.085927E1,9.3505375E-2,1E0,6.82565E3,1E0,2E0,1.3475828E-1,-2.387721E-1,8.477015E2,1E0,4.96E1,1E0,5.5E1,6.29345E3,1E0,6.8E1,-5.413628E-2,5.890895E-2,-1.7753008E-1,7.728419E-2,-4.806861E-2,-2.8586572E-1,4.9410596E-1,-1.0180611E-1,-1.2696728E-1,-4.379637E-1,1.4373777E-2,3.601797E-1,-4.678031E-2,1.376148E-1,-1.7630887E-1,6.55241E-2,8.421332E-2,-6.676968E-2,-9.815511E-2,3.510929E-2,-2.3184016E-1,-9.159546E-2,3.605366E-1,-8.574941E-2,3.8149875E-1,5.480509E-2,3.397505E-2,-1.8407008E-1,3.184382E-1,2.5616251E-2,-5.734884E-2,-2.7161467E-1,2.0839562E-1,-1.00149065E-1],"split_indices":[8,17,18,17,8,18,18,4,1,1,7,1,0,0,4,17,18,14,0,9,17,0,16,4,4,18,4,17,17,18,4,18,0,9,18,12,12,0,0,18,10,17,2,4,18,13,4,0,0,0,0,0,0,0,0,0,0,0,0,0,0,0,0,0,0,0,0,0,0,0,0,0,0,0,0,0,0,0,0,0,0],"split_type":[0,0,0,0,0,0,0,0,0,0,0,0,0,0,0,0,0,0,0,0,0,0,0,0,0,0,0,0,0,0,0,0,0,0,0,0,0,0,0,0,0,0,0,0,0,0,0,0,0,0,0,0,0,0,0,0,0,0,0,0,0,0,0,0,0,0,0,0,0,0,0,0,0,0,0,0,0,0,0,0,0],"sum_hessian":[1.0169966E3,8.153065E2,2.0169008E2,1.2652992E2,6.887766E2,1.4592308E2,5.5766994E1,1.18416565E2,8.1133585E0,6.633751E2,2.5401493E1,1.4168428E2,4.2387934E0,6.754714E0,4.901228E1,9.819615E1,2.0220413E1,6.7372627E0,1.3760959E0,5.341421E2,1.2923302E2,2.1912468E1,3.4890254E0,1.20166245E2,2.151804E1,1.5619829E1,3.3392452E1,6.5209465E1,3.2986687E1,7.884434E0,1.23359785E1,5.490699E0,1.2465637E0,3.743673E2,1.597748E2,3.5131466E1,9.4101555E1,1.6011398E0,1.8878855E0,9.411779E1,2.6048452E1,1.4356616E1,7.161423E0,1.1927851E1,3.691979E0,1.3411891E1,1.998056E1,2.0302149E1,4.4907314E1,1.9263556E1,1.3723133E1,1.0747688E0,6.809665E0,1.3929509E0,1.0943028E1,1.9586964E0,3.5320024E0,3.4858743E2,2.5779865E1,1.4423813E2,1.5536665E1,2.7839159E1,7.292306E0,3.6919945E1,5.718161E1,3.5256107E1,5.8861683E1,1.3925259E1,1.2123194E1,1.638256E0,1.271836E1,4.300552E0,2.860871E0,8.011942E0,3.9159086E0,2.1442294E0,1.5477494E0,3.4672296E0,9.944661E0,4.085501E0,1.5895059E1],"tree_param":{"num_deleted":"0","num_feature":"19","num_nodes":"81","size_leaf_vector":"1"}},{"base_weights":[1.2307497E-3,8.271699E-3,-4.737417E-1,3.3423737E-2,-9.948057E-2,-6.8979883E-1,-2.421001E-1,-1.2428734E-2,1.389498E-1,-1.2549806E-1,4.2971224E-1,-3.841481E-2,-7.906109E-1,-6.010974E-1,6.486752E-2,3.0471185E-2,-3.0126134E-1,9.4690986E-2,3.0957493E-1,-5.137908E-2,-4.0883267E-1,6.8969434E-1,1.7519018E-1,-8.7067604E-2,-2.7049914E-1,-2.4666029E-1,-3.4295E-2,2.65369E-1,-7.32512E-2,2.8468752E-1,-5.0526303E-3,-4.6560332E-1,1.3402715E-1,4.6474636E-1,-1.2983289E-2,-8.32571E-2,8.709829E-1,-5.944859E-1,-1.7209263E-1,5.0337948E-2,2.4230815E-1,1.6485338E-1,-1.0973265E-1,-6.1545122E-2,1.5571404E-1,-3.767254E-2,2.0432606E-1,-4.128015E-2,1.6379526E-2,8.912974E-2,-1.7009988E-1,9.588729E-2,-2.6385444E-1,8.8962294E-2,3.220132E-1,9.856887E-2,-2.99429E-2,-9.812207E-3,-1.0457295E-1,4.1353926E-1,8.192834E-2,-3.1053534E-1,-1.137007E-1,-1.3729738E-1,3.160716E-2,1.14049815E-1,-2.1206091E-1],"categories":[],"categories_nodes":[],"categories_segments":[],"categories_sizes":[],"default_left":[0,0,0,0,0,0,0,0,0,0,0,0,0,0,0,0,0,0,0,0,0,0,0,0,0,0,0,0,0,0,0,0,0,0,0,0,0,0,0,0,0,0,0,0,0,0,0,0,0,0,0,0,0,0,0,0,0,0,0,0,0,0,0,0,0,0,0],"id":16,"left_children":[1,3,5,7,9,11,13,15,17,19,21,-1,23,25,27,29,31,33,-1,35,37,39,41,-1,-1,-1,-1,43,-1,45,47,49,51,53,55,57,59,61,63,-1,-1,-1,65,-1,-1,-1,-1,-1,-1,-1,-1,-1,-1,-1,-1,-1,-1,-1,-1,-1,-1,-1,-1,-1,-1,-1,-1],"loss_changes":[3.3436527E0,2.6729772E0,5.639367E-1,3.8695962E0,2.624052E0,2.96077E-1,9.854996E-1,6.925295E0,9.47489E0,3.7317073E0,4.729601E-1,0E0,5.811906E-2,3.425914E-1,4.0760902E-1,4.398389E0,5.232589E0,9.245182E0,0E0,4.270894E0,1.5199223E0,1.16885066E-1,6.868699E-1,0E0,0E0,0E0,0E0,5.641985E-1,0E0,9.796465E0,3.392927E0,4.24317E0,4.1533103E0,5.034766E0,5.3881054E0,1.851901E0,1.097336E0,1.5331903E0,1.4450538E0,0E0,0E0,0E0,1.4884073E0,0E0,0E0,0E0,0E0,0E0,0E0,0E0,0E0,0E0,0E0,0E0,0E0,0E0,0E0,0E0,0E0,0E0,0E0,0E0,0E0,0E0,0E0,0E0,0E0],"parents":[2147483647,0,0,1,1,2,2,3,3,4,4,5,5,6,6,7,7,8,8,9,9,10,10,12,12,13,13,14,14,15,15,16,16,17,17,19,19,20,20,21,21,22,22,27,27,29,29,30,30,31,31,32,32,33,33,34,34,35,35,36,36,37,37,38,38,42,42],"right_children":[2,4,6,8,10,12,14,16,18,20,22,-1,24,26,28,30,32,34,-1,36,38,40,42,-1,-1,-1,-1,44,-1,46,48,50,52,54,56,58,60,62,64,-1,-1,-1,66,-1,-1,-1,-1,-1,-1,-1,-1,-1,-1,-1,-1,-1,-1,-1,-1,-1,-1,-1,-1,-1,-1,-1,-1],"split_conditions":[7.1E1,2E0,1.0160391E2,8.61E1,7.5815E3,5.45E1,1E0,2E0,1E0,5.6E1,2E0,-3.841481E-2,1E0,1.092E2,7.7239E3,1E0,2.323045E3,2E0,3.0957493E-1,5.4E1,6.5E1,6.8E1,6.9E1,-8.7067604E-2,-2.7049914E-1,-2.4666029E-1,-3.4295E-2,2E0,-7.32512E-2,3.0530272E1,4.495E1,4.2275322E1,8.48E1,1E0,1.267E3,4.4E1,1E0,1E0,1E0,5.0337948E-2,2.4230815E-1,1.6485338E-1,1E0,-6.1545122E-2,1.5571404E-1,-3.767254E-2,2.0432606E-1,-4.128015E-2,1.6379526E-2,8.912974E-2,-1.7009988E-1,9.588729E-2,-2.6385444E-1,8.8962294E-2,3.220132E-1,9.856887E-2,-2.99429E-2,-9.812207E-3,-1.0457295E-1,4.1353926E-1,8.192834E-2,-3.1053534E-1,-1.137007E-1,-1.3729738E-1,3.160716E-2,1.14049815E-1,-2.1206091E-1],"split_indices":[4,11,17,17,18,17,0,12,11,4,14,0,16,17,18,5,18,13,0,4,4,4,4,0,0,0,0,14,0,17,17,17,17,13,18,4,16,16,0,0,0,0,16,0,0,0,0,0,0,0,0,0,0,0,0,0,0,0,0,0,0,0,0,0,0,0,0],"split_type":[0,0,0,0,0,0,0,0,0,0,0,0,0,0,0,0,0,0,0,0,0,0,0,0,0,0,0,0,0,0,0,0,0,0,0,0,0,0,0,0,0,0,0,0,0,0,0,0,0,0,0,0,0,0,0,0,0,0,0,0,0,0,0,0,0,0,0],"sum_hessian":[9.976476E2,9.840428E2,1.3604778E1,7.9837274E2,1.8567007E2,6.015821E0,7.5889573E0,5.571611E2,2.4121164E2,1.7769656E2,7.9735107E0,1.2607564E0,4.7550645E0,3.0563686E0,4.532589E0,4.858874E2,7.1273705E1,2.3087465E2,1.0336984E1,1.4178708E2,3.5909485E1,3.0986376E0,4.874873E0,1.5199273E0,3.2351372E0,1.6278949E0,1.4284737E0,2.8347394E0,1.6978494E0,5.8712643E1,4.2717474E2,5.168901E1,1.958469E1,5.128882E1,1.7958583E2,1.3792978E2,3.8572962E0,1.927935E1,1.6630136E1,1.0180176E0,2.08062E0,1.705551E0,3.169322E0,1.0599846E0,1.7747549E0,2.9187538E1,2.9525106E1,1.3217282E2,2.9500192E2,5.838882E0,4.585013E1,1.7132145E1,2.4525468E0,4.134865E1,9.940167E0,3.5835747E1,1.4375009E2,1.16799866E2,2.1129917E1,1.3802232E0,2.4770732E0,5.0825644E0,1.4196785E1,7.8751354E0,8.755001E0,1.9405898E0,1.2287322E0],"tree_param":{"num_deleted":"0","num_feature":"19","num_nodes":"67","size_leaf_vector":"1"}},{"base_weights":[1.8020719E-3,7.612671E-3,-4.1230765E-1,-2.1772254E-2,9.378217E-2,-1.5626131E-1,-6.163185E-1,2.0561224E-2,-1.9228582E-1,4.6025446E-1,4.513078E-2,-4.5540643E-1,1.6400169E-1,-7.294993E-1,-2.6746015E-3,-3.5882406E-2,2.043255E-1,-8.92456E-2,-4.302614E-1,6.7248356E-1,-6.511092E-2,3.8486978E-1,1.6101972E-4,7.2747534E-3,-1.9487493E-1,1.4651152E-1,-5.4412726E-2,-3.3763457E-2,-2.5099975E-1,9.030483E-2,-1.1701943E-1,3.64471E-1,-4.176619E-2,2.5032318E-1,-1.416805E-1,-5.212923E-1,5.5084044E-1,8.47264E-1,8.740252E-2,7.250416E-1,-6.6784465E-1,6.371877E-1,9.487502E-2,-3.264115E-1,6.087731E-2,6.2738075E-3,1.13364086E-1,-9.742195E-2,-1.6172772E-2,-2.1208579E-2,1.7871906E-1,-7.234462E-2,1.7451881E-1,-2.8720012E-1,-1.9682553E-2,-6.323452E-2,-2.5665218E-1,2.9029554E-1,-6.0017724E-2,1.4880185E-1,3.1254652E-1,2.4568796E-1,-1.6935122E-1,2.053425E-2,3.053786E-1,-2.6581946E-1,4.8737533E-2,-7.490147E-2,2.4442832E-1,9.89886E-2,-1.3723628E-1,-1.6906917E-1,9.1233276E-2,4.255884E-2,-3.7840948E-2],"categories":[],"categories_nodes":[],"categories_segments":[],"categories_sizes":[],"default_left":[0,0,0,0,0,0,0,0,0,0,0,0,0,0,0,0,0,0,0,0,0,0,0,0,0,0,0,0,0,0,0,0,0,0,0,0,0,0,0,0,0,0,0,0,0,0,0,0,0,0,0,0,0,0,0,0,0,0,0,0,0,0,0,0,0,0,0,0,0,0,0,0,0,0,0],"id":17,"left_children":[1,3,5,7,9,11,13,15,17,19,21,23,25,27,-1,29,31,33,35,37,39,41,43,-1,-1,-1,-1,-1,-1,45,47,-1,49,51,53,55,57,59,61,63,65,67,69,71,73,-1,-1,-1,-1,-1,-1,-1,-1,-1,-1,-1,-1,-1,-1,-1,-1,-1,-1,-1,-1,-1,-1,-1,-1,-1,-1,-1,-1,-1,-1],"loss_changes":[2.3753932E0,2.466322E0,6.1724854E-1,5.2484913E0,4.3951035E0,7.83378E-1,4.927976E-1,6.053847E0,3.5073657E0,3.2680817E0,3.357366E0,3.9663696E-1,5.711746E-1,3.09798E-1,0E0,4.585293E0,3.4154076E1,1.854636E0,4.165947E0,2.0412788E0,4.881135E0,1.8191242E0,3.8877416E0,0E0,0E0,0E0,0E0,0E0,0E0,3.492848E0,3.553326E0,0E0,2.0936637E0,2.4250982E0,5.4683414E0,3.9974012E0,1.499899E0,5.638819E-1,3.2632103E0,7.9080963E-1,1.1872041E0,2.3390646E0,1.8553443E0,4.767724E0,2.5218818E0,0E0,0E0,0E0,0E0,0E0,0E0,0E0,0E0,0E0,0E0,0E0,0E0,0E0,0E0,0E0,0E0,0E0,0E0,0E0,0E0,0E0,0E0,0E0,0E0,0E0,0E0,0E0,0E0,0E0,0E0],"parents":[2147483647,0,0,1,1,2,2,3,3,4,4,5,5,6,6,7,7,8,8,9,9,10,10,11,11,12,12,13,13,15,15,16,16,17,17,18,18,19,19,20,20,21,21,22,22,29,29,30,30,32,32,33,33,34,34,35,35,36,36,37,37,38,38,39,39,40,40,41,41,42,42,43,43,44,44],"right_children":[2,4,6,8,10,12,14,16,18,20,22,24,26,28,-1,30,32,34,36,38,40,42,44,-1,-1,-1,-1,-1,-1,46,48,-1,50,52,54,56,58,60,62,64,66,68,70,72,74,-1,-1,-1,-1,-1,-1,-1,-1,-1,-1,-1,-1,-1,-1,-1,-1,-1,-1,-1,-1,-1,-1,-1,-1,-1,-1,-1,-1,-1,-1],"split_conditions":[7.1E1,9.300262E1,1E0,2E0,2E0,2E0,1.158E2,1E0,2E0,2E0,1.15635E3,1E0,1.0359889E2,1E0,-2.6746015E-3,7E0,2E0,1.663E2,5.2329E3,1E0,9.57E1,1E0,9.59E1,7.2747534E-3,-1.9487493E-1,1.4651152E-1,-5.4412726E-2,-3.3763457E-2,-2.5099975E-1,7.501259E1,7.907E2,3.64471E-1,5.3E1,7.57E1,2.666E2,1E0,1E0,2E0,2E0,2E0,1.053E2,2.9845E2,9E0,4.743348E3,2E0,6.2738075E-3,1.13364086E-1,-9.742195E-2,-1.6172772E-2,-2.1208579E-2,1.7871906E-1,-7.234462E-2,1.7451881E-1,-2.8720012E-1,-1.9682553E-2,-6.323452E-2,-2.5665218E-1,2.9029554E-1,-6.0017724E-2,1.4880185E-1,3.1254652E-1,2.4568796E-1,-1.6935122E-1,2.053425E-2,3.053786E-1,-2.6581946E-1,4.8737533E-2,-7.490147E-2,2.4442832E-1,9.89886E-2,-1.3723628E-1,-1.6906917E-1,9.1233276E-2,4.255884E-2,-3.7840948E-2],"split_indices":[4,17,8,12,13,14,17,12,6,11,18,2,17,2,0,4,7,18,18,14,17,0,17,0,0,0,0,0,0,17,18,0,4,17,18,2,10,16,10,16,17,18,4,18,8,0,0,0,0,0,0,0,0,0,0,0,0,0,0,0,0,0,0,0,0,0,0,0,0,0,0,0,0,0,0],"split_type":[0,0,0,0,0,0,0,0,0,0,0,0,0,0,0,0,0,0,0,0,0,0,0,0,0,0,0,0,0,0,0,0,0,0,0,0,0,0,0,0,0,0,0,0,0,0,0,0,0,0,0,0,0,0,0,0,0,0,0,0,0,0,0,0,0,0,0,0,0,0,0,0,0,0,0],"sum_hessian":[9.8488214E2,9.72222E2,1.2660159E1,7.25548E2,2.46674E2,6.3972096E0,6.262949E0,5.8194714E2,1.4360086E2,2.7918016E1,2.1875598E2,3.0894754E0,3.3077343E0,5.109799E0,1.1531502E0,4.4581787E2,1.3612927E2,1.0117044E2,4.2430416E1,1.9685669E1,8.232347E0,2.4687517E1,1.9406847E2,1.1424671E0,1.9470083E0,1.4922377E0,1.8154966E0,1.0596439E0,4.050155E0,1.7442805E2,2.713898E2,2.5887054E1,1.1024221E2,1.302787E1,8.814257E1,3.9256676E1,3.1737404E0,1.4812607E1,4.8730617E0,3.4745157E0,4.7578316E0,